\data\
ngram 1=611
ngram 2=1722
ngram 3=2318

\1-grams:
-0.40524876	<unk>
-inf	<s>	-0.36732888
-2.1289642	</s>
-2.9817648	scientists	-0.16793004
-3.5713265	complete	-0.12915872
-3.2919672	sequencing	-0.18134387
-1.4894314	of	-0.24862003
-1.556643	the	-0.19751872
-2.34417	chromosome	-0.2818734
-2.5551682	linked	-0.59907067
-1.6822006	to	-0.18271272
-2.34417	early	-0.22115502
-3.5713265	dementia	-0.12915872
-3.3352056	-LRB-	-0.15446793
-3.3352056	afp	-0.14586663
-1.4381022	,	-0.29678228
-2.9817648	paris	-0.15446793
-3.3352056	january	-0.15446793
-3.5713265	2	-0.12915872
-2.7895203	-RRB-	-0.14586663
-2.9817648	an	-0.18134387
-2.7895203	international	-0.185668
-3.5713265	team	-0.12915872
-2.2027767	said	-0.2293415
-1.7202144	that	-0.25840884
-2.9817648	they	-0.14586663
-2.1643043	have	-0.24939822
-2.9817648	completed	-0.18740983
-2.9817648	human	-0.14928673
-3.5713265	14	-0.12915874
-2.2917557	is	-0.16616653
-3.2919672	many	-0.18134387
-2.7895203	diseases	-0.14162898
-2.9817648	including	-0.16995437
-3.3352056	early-onset	-0.23109385
-2.656725	alzheimer	-0.14022559
-2.34417	's	-0.12915872
-3.3352056	may	-0.12915874
-3.2919672	strike	-0.18134387
-2.5551682	people	-0.19246109
-1.7071698	in	-0.30829135
-3.2919672	their	-0.12915872
-3.5713265	30s	-0.12915872
-1.3984709	.	-0.80284804
-2.656725	this	-0.14162898
-3.5713265	fourth	-0.12915872
-3.2919672	whose	-0.12915872
-3.3352056	sequence	-0.15446793
-2.34417	has	-0.24770193
-3.3352056	been	-0.15158184
-3.5713265	date	-0.12915872
-3.3352056	it	-0.1632431
-3.2919672	comprises	-0.15446793
-2.9817648	more	-0.35603258
-3.5713265	than	-0.12915874
-3.2919672	87	-0.18134387
-3.5713265	million	-0.12915872
-2.656725	pairs	-0.53212386
-3.3352056	dna	-0.1632431
-3.2919672	study	-0.12915872
-3.3352056	published	-0.1632431
-3.3352056	weekly	-0.12915874
-3.2919672	british	-0.15446793
-3.5713265	scientific	-0.12915872
-3.2919672	journal	-0.18134387
-3.5713265	nature	-0.12915872
-3.5713265	illustrates	-0.12915872
-3.3352056	1,050	-0.23109385
-2.2917557	genes	-0.18639292
-1.7336628	and	-0.14713015
-2.656725	gene	-0.15446793
-3.5713265	fragments	-0.12915872
-3.5713265	goal	-0.12915872
-3.5713265	geneticists	-0.12915872
-3.2919672	provide	-0.1632431
-3.2919672	diagnostic	-0.18134387
-3.5713265	tools	-0.12915872
-3.5713265	identify	-0.12915872
-3.2919672	defective	-0.18134387
-2.7895203	cause	-0.16464037
-3.2919672	so	-0.12915872
-2.5551682	as	-0.14162898
-3.5713265	arrive	-0.12915872
-3.5713265	eventually	-0.12915872
-3.5713265	at	-0.12915872
-3.2919672	treatments	-0.1632431
-3.2919672	can	-0.12915872
-3.5713265	prevent	-0.12915872
-3.3352056	those	-0.1632431
-2.2027767	from	-0.24884737
-3.5713265	malfunctioning	-0.12915872
-3.3352056	led	-0.23109385
-2.1643043	by	-0.19984885
-3.3352056	genoscope	-0.15446793
-2.0962849	a	-0.13295773
-3.2919672	french	-0.18134387
-3.2919672	research	-0.12915874
-3.5713265	center	-0.12915872
-3.5713265	contains	-0.12915872
-2.4729166	two	-0.16782697
-3.5713265	clusters	-0.12915872
-2.4729166	are	-0.13679026
-3.5713265	function	-0.12915872
-3.5713265	our	-0.12915872
-3.3352056	immune	-0.23109385
-3.5713265	system	-0.12915872
-3.2919672	60	-0.12915874
-3.3352056	disease	-0.12915872
-3.5713265	identified	-0.12915874
-3.5713265	earlier	-0.12915872
-3.2919672	studies	-0.12915872
-2.0374904	on	-0.43606195
-3.5713265	great	-0.12915872
-3.5713265	number	-0.12915872
-3.5713265	such	-0.12915872
-3.3352056	spastic	-0.23109385
-3.5713265	paraplegia	-0.12915872
-3.5713265	afflicts	-0.12915872
-3.2919672	young	-0.18134387
-3.2919672	children	-0.12915874
-3.2919672	missing	-0.18134387
-3.2919672	teeth	-0.12915874
-3.2919672	several	-0.1632431
-3.5713265	forms	-0.12915872
-3.5713265	vision	-0.12915872
-3.5713265	hearing	-0.12915872
-3.5713265	impairments	-0.12915872
-2.9817648	about	-0.15446793
-3.3352056	200,000	-0.20328088
-3.5713265	americans	-0.12915872
-3.5713265	suffer	-0.12915872
-3.5713265	accounting	-0.12915872
-2.34417	for	-0.21185008
-3.5713265	5	-0.12915872
-3.5713265	%	-0.12915872
-3.2919672	patients	-0.18134387
-3.5713265	entire	-0.12915872
-3.2919672	united	-0.18134387
-3.2919672	states	-0.12915874
-3.5713265	humans	-0.12915872
-3.3352056	total	-0.12915874
-3.2919672	23	-0.1632431
-2.9817648	chromosomes	-0.14022559
-3.5713265	past	-0.12915872
-3.3352056	three	-0.12915872
-3.3352056	years	-0.15446793
-2.9817648	20	-0.18134387
-3.5713265	21	-0.12915872
-3.5713265	22	-0.12915872
-3.2919672	decrypted	-0.18134387
-3.5713265	crucial	-0.12915872
-3.5713265	symptoms	-0.12915872
-3.5713265	disorders	-0.12915872
-3.5713265	agence	-0.12915872
-3.5713265	france-presse	-0.12915872
-3.5713265	2nd	-0.12915872
-2.7895203	-	-0.12915874
-3.5713265	consortium	-0.12915872
-3.5713265	fourteenth	-0.12915872
-2.7895203	pair	-0.3001909
-3.2919672	which	-0.14162898
-3.5713265	broad	-0.12915872
-3.2919672	range	-0.18134387
-3.5713265	onset	-0.12915872
-3.2919672	be	-0.14928673
-3.2919672	fully	-0.18134387
-3.2919672	sequenced	-0.12915872
-3.2919672	up	-0.12915874
-3.5713265	till	-0.12915872
-3.5713265	now	-0.12915872
-2.2917557	over	-0.5298325
-3.5713265	deoxyribonucleic	-0.12915872
-3.5713265	acid	-0.12915872
-2.5551682	was	-0.14022559
-3.2919672	science	-0.12915874
-3.2919672	made	-0.12915874
-3.2919672	flawed	-0.18134387
-3.2919672	illness	-0.12915872
-3.5713265	ultimately	-0.12915872
-3.5713265	stop	-0.12915872
-2.7895203	these	-0.1632431
-3.5713265	vital	-0.12915872
-3.5713265	well	-0.12915872
-3.5713265	wide	-0.12915872
-3.3352056	during	-0.12915874
-3.2919672	previous	-0.12915872
-3.2919672	include	-0.1632431
-3.5713265	form	-0.12915872
-3.5713265	strikes	-0.12915872
-2.7895203	;	-0.14586663
-3.2919672	kinds	-0.18134387
-3.5713265	around	-0.12915872
-3.5713265	accounted	-0.12915872
-3.5713265	five	-0.12915872
-3.5713265	percent	-0.12915872
-3.3352056	all	-0.15446793
-3.5713265	sufferers	-0.12915872
-3.5713265	america	-0.12915872
-3.5713265	beings	-0.12915872
-3.5713265	sets	-0.12915872
-3.2919672	other	-0.12915872
-3.2919672	set	-0.12915872
-3.2919672	early-stage	-0.12915872
-3.5713265	low	-0.12915872
-3.5713265	iq	-0.12915872
-3.2919672	report	-0.12915874
-3.5713265	group	-0.12915872
-2.7895203	had	-0.12915874
-3.3352056	being	-0.12915874
-3.5713265	far	-0.12915872
-3.2919672	shows	-0.18134387
-3.5713265	segments	-0.12915872
-3.5713265	aim	-0.12915872
-3.5713265	offer	-0.12915872
-3.5713265	discover	-0.12915872
-3.2919672	lead	-0.12915872
-3.5713265	finally	-0.12915872
-3.5713265	groups	-0.12915872
-3.2919672	researches	-0.12915872
-3.5713265	sight	-0.12915872
-3.5713265	damages	-0.12915872
-2.9817648	there	-0.14928673
-2.2917557	with	-0.16122307
-3.5713265	state	-0.12915872
-3.2919672	country	-0.12915872
-3.5713265	20th	-0.12915872
-3.5713265	21st	-0.12915872
-3.5713265	22nd	-0.12915872
-3.2919672	order	-0.12915872
-3.2919672	critical	-0.18134387
-3.2919672	arzhermes	-0.12915872
-3.5713265	syndrome	-0.12915872
-3.5713265	thursday	-0.12915872
-3.5713265	14th	-0.12915872
-3.2919672	related	-0.18134387
-3.5713265	possibly	-0.12915872
-3.5713265	contracted	-0.12915872
-3.5713265	4th	-0.12915872
-3.5713265	consist	-0.12915872
-3.5713265	8700	-0.12915872
-3.5713265	dnas	-0.12915872
-2.9817648	result	-0.15446793
-3.5713265	magazine	-0.12915872
-3.5713265	nation	-0.12915872
-3.5713265	formed	-0.12915872
-3.5713265	1050	-0.12915872
-3.3352056	or	-0.12915874
-3.2919672	find	-0.12915872
-3.5713265	causes	-0.12915872
-3.5713265	cures	-0.12915872
-3.5713265	preventing	-0.12915872
-3.5713265	coming	-0.12915872
-3.2919672	into	-0.12915872
-3.5713265	france	-0.12915872
-3.5713265	liangcong	-0.12915872
-3.5713265	diseased	-0.12915872
-3.5713265	quite	-0.12915872
-3.5713265	prominent	-0.12915872
-3.5713265	kind	-0.12915872
-3.5713265	convulsive	-0.12915872
-3.5713265	anesthesia	-0.12915872
-3.5713265	enfant	-0.12915872
-3.5713265	period	-0.12915872
-3.5713265	default	-0.12915872
-2.9817648	some	-0.20328088
-3.5713265	eyesight	-0.12915872
-3.5713265	accounts	-0.12915872
-3.2919672	population	-0.12915872
-3.2919672	3	-0.12915872
-3.5713265	orders	-0.12915872
-3.5713265	laptops	-0.12915872
-3.5713265	inquiry	-0.12915872
-3.2919672	data	-0.12915872
-3.2919672	diana	-0.14344001
-2.656725	death	-0.1724597
-2.7895203	stolen	-0.28968632
-3.2919672	6th	-0.12915874
-2.9817648	london	-0.15820703
-3.2919672	daily	-0.1632431
-3.5713265	express	-0.12915874
-3.5713265	noted	-0.12915872
-3.2919672	1997	-0.12915874
-2.7895203	car	-0.3001909
-3.5713265	accident	-0.12915874
-3.3352056	caused	-0.1632431
-2.656725	princess	-0.28968632
-2.34417	were	-0.16425884
-3.2919672	office	-0.12915872
-3.3352056	former	-0.20328088
-2.9817648	metropolitan	-0.35603258
-3.3352056	police	-0.13743228
-3.2919672	commissioner	-0.12915874
-3.3352056	pointed	-0.23109385
-3.5713265	out	-0.12915872
-3.5713265	theft	-0.12915872
-3.5713265	triggered	-0.12915872
-3.3352056	speculation	-0.23109385
-2.656725	computers	-0.17013714
-3.3352056	contain	-0.12915874
-3.3352056	confidential	-0.15446793
-3.3352056	information	-0.12915872
-3.5713265	probe	-0.12915872
-3.3352056	lord	-0.23109385
-2.9817648	stevens	-0.15820703
-3.5713265	however	-0.12915872
-3.2919672	spokeswoman	-0.12915872
-3.3352056	no	-0.1703931
-3.2919672	sensitive	-0.18134387
-2.7895203	any	-0.14344001
-3.2919672	head	-0.18134387
-2.7895203	northumbria	-0.4529426
-3.5713265	britain	-0.12915872
-3.3352056	his	-0.1632431
-3.5713265	located	-0.12915872
-3.5713265	vicinity	-0.12915872
-2.9817648	newcastle	-0.12915872
-3.3352056	tyne	-0.1632431
-3.5713265	detectives	-0.12915872
-3.5713265	investigating	-0.12915874
-3.5713265	burglaries	-0.12915872
-3.2919672	ten	-0.18134387
-3.2919672	days	-0.18134387
-3.5713265	one	-0.12915874
-2.7895203	took	-0.4529426
-3.5713265	place	-0.12915872
-3.5713265	weekend	-0.12915872
-3.5713265	28-29	-0.12915872
-3.5713265	cash	-0.12915872
-3.3352056	taken	-0.1632431
-3.5713265	while	-0.12915872
-2.9817648	last	-0.17714243
-3.2919672	week	-0.14928673
-3.5713265	nothing	-0.12915872
-3.5713265	lost	-0.12915872
-2.9817648	also	-0.12915872
-3.5713265	evidence	-0.12915874
-3.3352056	'	-0.12915874
-2.7895203	work	-0.14928673
-3.5713265	wales	-0.12915872
-3.3352056	not	-0.12915874
-3.5713265	directly	-0.12915872
-3.5713265	laptop	-0.12915872
-3.2919672	containing	-0.12915872
-2.9817648	investigation	-0.14162898
-2.9817648	materials	-0.12915872
-3.2919672	chief	-0.12915872
-2.9817648	larceny	-0.14928673
-2.9817648	case	-0.12915872
-3.3352056	brought	-0.1632431
-3.5713265	might	-0.12915872
-3.5713265	conceal	-0.12915872
-3.2919672	bureau	-0.12915874
-3.2919672	sir	-0.18134387
-3.5713265	uk	-0.12915872
-3.5713265	area	-0.12915872
-3.5713265	thames	-0.12915872
-3.2919672	river	-0.12915872
-3.5713265	officers	-0.12915872
-3.3352056	cases	-0.12915872
-3.5713265	occurred	-0.12915872
-3.5713265	break	-0.12915872
-3.5713265	28	-0.12915872
-3.5713265	29	-0.12915872
-3.5713265	second	-0.12915874
-3.2919672	losses	-0.12915872
-3.5713265	involved	-0.12915872
-3.2919672	stated	-0.18134387
-3.5713265	showing	-0.12915872
-3.5713265	whether	-0.12915872
-3.5713265	reported	-0.12915872
-2.7895203	material	-0.14928673
-3.5713265	fatal	-0.12915872
-3.5713265	crash	-0.12915872
-3.5713265	says	-0.12915872
-3.5713265	given	-0.12915872
-3.5713265	rise	-0.12915872
-3.2919672	conjecture	-0.12915872
-3.5713265	headed	-0.12915872
-3.2919672	did	-0.18134387
-3.5713265	constable	-0.12915872
-3.2919672	england	-0.12915872
-3.5713265	upon	-0.12915872
-3.5713265	first	-0.12915872
-3.5713265	when	-0.12915872
-3.5713265	burglary	-0.12915872
-3.5713265	but	-0.12915872
-3.5713265	without	-0.12915872
-3.5713265	loss	-0.12915872
-3.5713265	break-ins	-0.12915872
-3.5713265	if	-0.12915872
-3.5713265	straightforward	-0.12915872
-3.5713265	investigative	-0.12915872
-3.3352056	indicated	-0.23109385
-3.5713265	indicates	-0.12915872
-3.5713265	created	-0.12915872
-3.5713265	among	-0.12915872
-3.2919672	stevenson	-0.12915872
-3.5713265	hidden	-0.12915872
-3.5713265	them	-0.12915872
-3.5713265	spokeswomen	-0.12915872
-3.5713265	fact	-0.12915872
-3.5713265	do	-0.12915872
-3.2919672	concerning	-0.18134387
-3.5713265	department	-0.12915874
-3.5713265	situated	-0.12915872
-3.5713265	along	-0.12915872
-3.2919672	officials	-0.12915874
-3.5713265	10	-0.12915872
-3.5713265	happed	-0.12915872
-3.3352056	between	-0.12915872
-3.5713265	vacation	-0.12915872
-3.5713265	money	-0.12915872
-3.5713265	happened	-0.12915872
-3.5713265	expressed	-0.12915872
-3.5713265	indicate	-0.12915872
-3.5713265	connected	-0.12915872
-3.5713265	direct	-0.12915872
-3.3352056	white	-0.23109385
-3.5713265	house	-0.12915874
-3.5713265	pushes	-0.12915872
-2.2449913	nuclear	-0.33277264
-3.2919672	inspectors	-0.1632431
-3.2919672	sent	-0.12915872
-3.3352056	soon	-0.1632431
-3.5713265	possible	-0.12915872
-3.5713265	monitor	-0.12915872
-2.656725	north	-0.41462508
-3.3352056	korea	-0.13819233
-3.5713265	closure	-0.12915872
-3.3352056	its	-0.1632431
-3.5713265	reactors	-0.12915872
-2.7895203	today	-0.12915872
-3.2919672	called	-0.18134387
-3.5713265	call	-0.12915872
-2.656725	after	-0.17349385
-2.7895203	us	-0.1632431
-3.3352056	president	-0.1632431
-3.5713265	bush	-0.12915874
-3.3352056	telephone	-0.12915874
-3.5713265	conversations	-0.12915872
-3.3352056	south	-0.23109385
-3.2919672	korean	-0.12915872
-3.5713265	roh	-0.12915872
-3.5713265	moo	-0.12915872
-3.2919672	hyun	-0.18134387
-3.5713265	national	-0.12915872
-3.5713265	security	-0.12915872
-3.5713265	council	-0.12915874
-3.2919672	spokesman	-0.12915874
-3.3352056	johndroe	-0.17714243
-3.5713265	leaders	-0.12915872
-2.9817648	"	-0.20328088
-3.5713265	discussed	-0.12915872
-3.5713265	new	-0.12915872
-3.3352056	developments	-0.1632431
-2.9817648	cooperation	-0.12915872
-3.5713265	issue	-0.12915872
-3.5713265	looked	-0.12915872
-3.5713265	forward	-0.12915872
-3.5713265	speedy	-0.12915872
-3.3352056	return	-0.1632431
-3.3352056	iaea	-0.23109385
-2.7895203	shutdown	-0.14586663
-3.5713265	sealing	-0.12915872
-3.2919672	presidents	-0.18134387
-3.5713265	welcomed	-0.12915872
-3.2919672	free	-0.18134387
-3.5713265	trade	-0.12915872
-3.3352056	agreement	-0.14928673
-3.2919672	signed	-0.1632431
-3.5713265	+	-0.12915872
-3.5713265	yesterday	-0.12915872
-3.3352056	would	-0.1632431
-3.5713265	ensure	-0.12915872
-3.5713265	congresses	-0.12915872
-3.3352056	both	-0.1632431
-3.2919672	countries	-0.12915874
-3.5713265	approve	-0.12915872
-3.5713265	experts	-0.12915872
-3.5713265	believe	-0.12915872
-3.5713265	elemental	-0.12915872
-3.3352056	plutonium	-0.15446793
-2.7895203	pyongyang	-0.15820703
-3.3352056	produced	-0.12915872
-3.5713265	sufficient	-0.12915872
-3.5713265	create	-0.12915872
-3.5713265	twelve	-0.12915872
-3.5713265	weapons	-0.12915872
-3.2919672	hill	-0.12915872
-3.3352056	envoy	-0.23109385
-3.2919672	six	-0.18134387
-3.5713265	party	-0.12915872
-3.5713265	talks	-0.12915872
-3.2919672	visit	-0.18134387
-3.2919672	he	-0.12915872
-3.5713265	expected	-0.12915872
-3.2919672	yongbyon	-0.12915872
-3.5713265	shut	-0.12915872
-3.2919672	down	-0.12915872
-3.5713265	middle	-0.12915872
-3.2919672	July	-0.18134387
-3.3352056	torrential	-0.21050511
-3.2919672	rains	-0.12915872
-3.2919672	hit	-0.12915872
-2.656725	western	-0.37937215
-2.9817648	india	-0.22794633
-2.7895203	43	-0.26659104
-3.2919672	dead	-0.18134387
-3.5713265	battered	-0.12915872
-3.3352056	strong	-0.23109385
-3.2919672	winds	-0.18134387
-3.5713265	areas	-0.12915872
-3.5713265	saw	-0.12915872
-3.2919672	serious	-0.18134387
-3.3352056	flooding	-0.15446793
-3.5713265	domestic	-0.12915872
-3.5713265	overseas	-0.12915872
-3.2919672	flights	-0.12915874
-3.2919672	mumbai	-0.12915872
-3.5713265	major	-0.12915872
-3.2919672	city	-0.12915872
-3.5713265	west	-0.12915872
-3.2919672	stopped	-0.18134387
-3.5713265	relief	-0.12915872
-3.2919672	deaths	-0.12915872
-3.3352056	June	-0.1632431
-3.2919672	September	-0.15446793
-3.2919672	every	-0.12915872
-3.2919672	year	-0.12915872
-3.2919672	heavy	-0.1632431
-3.5713265	monsoon	-0.12915872
-3.3352056	often	-0.23109385
-3.5713265	widespread	-0.12915872
-3.2919672	flood	-0.12915872
-3.5713265	disasters	-0.12915872
-3.2919672	even	-0.12915872
-3.3352056	casualties	-0.1632431
-3.5713265	1.1	-0.12915872
-3.5713265	billion	-0.12915872
-3.5713265	urges	-0.12915874
-3.2919672	hastily	-0.12915872
-3.5713265	sending	-0.12915872
-3.5713265	supervise	-0.12915872
-3.2919672	reactor	-0.12915872
-3.2919672	appeal	-0.18134387
-3.5713265	conversation	-0.12915872
-3.5713265	spokesperson	-0.12915872
-3.5713265	recent	-0.12915872
-3.5713265	hope	-0.12915872
-3.2919672	will	-0.12915872
-3.5713265	very	-0.12915872
-3.2919672	halt	-0.12915872
-3.5713265	towards	-0.12915872
-3.2919672	ensuring	-0.12915872
-3.3352056	approval	-0.1632431
-3.5713265	legislatures	-0.12915872
-3.3352056	enough	-0.1632431
-3.5713265	manufacture	-0.12915872
-3.2919672	12	-0.18134387
-3.5713265	special	-0.12915872
-3.5713265	anticipated	-0.12915872
-3.3352056	killed	-0.1632431
-3.5713265	disastrous	-0.12915872
-3.2919672	rain	-0.12915874
-3.5713265	attacked	-0.12915872
-3.2919672	storms	-0.12915872
-3.5713265	seriously	-0.12915872
-3.2919672	flooded	-0.12915872
-3.5713265	came	-0.12915872
-3.5713265	rescue	-0.12915872
-3.5713265	official	-0.12915872
-3.5713265	resulted	-0.12915872
-3.2919672	monsoons	-0.12915874
-3.5713265	disastrously	-0.12915872
-3.2919672	causing	-0.12915874
-3.5713265	injuries	-0.12915872
-3.2919672	dispatch	-0.18134387
-3.5713265	oversee	-0.12915874
-3.5713265	urge	-0.12915872
-3.5713265	talked	-0.12915872
-3.2919672	latest	-0.12915872
-3.5713265	expect	-0.12915872
-3.5713265	quick	-0.12915872
-3.5713265	day	-0.12915872
-3.5713265	ago	-0.12915872
-3.5713265	produce	-0.12915872
-3.5713265	dozen	-0.12915872
-3.5713265	visiting	-0.12915872
-3.5713265	mid	-0.12915872
-3.5713265	plague	-0.12915872
-3.5713265	leaving	-0.12915872
-3.3352056	fierce	-0.23109385
-3.5713265	badly	-0.12915872
-3.5713265	each	-0.12915872
-3.2919672	prompt	-0.18134387
-3.3352056	atomic	-0.23109385
-3.5713265	urged	-0.12915872
-3.5713265	shutting	-0.12915872
-3.2919672	u.s.	-0.12915872
-3.5713265	development	-0.12915872
-3.5713265	hoped	-0.12915872
-3.5713265	committed	-0.12915872
-3.5713265	believed	-0.12915872
-3.5713265	decades	-0.12915872
-3.5713265	make	-0.12915872
-3.5713265	disaster	-0.12915872
-3.5713265	kills	-0.12915872
-3.5713265	lashed	-0.12915872
-3.5713265	halted	-0.12915872
-3.5713265	bring	-0.12915872
-3.5713265	resulting	-0.12915872

\2-grams:
-0.5804217	dementia </s>
-1.3170764	afp </s>
-1.3170764	-RRB- </s>
-0.12235556	. </s>
-0.5804217	disorders </s>
-0.5804217	iq </s>
-1.1559436	syndrome </s>
-0.42389005	stolen </s>
-1.3776568	london </s>
-1.1559436	reactors </s>
-1.161363	" </s>
-1.3170764	shutdown </s>
-1.4370786	india </s>
-0.4606201	dead </s>
-1.3739724	reactor </s>
-1.5617707	<s> scientists	-0.15911539
-2.0785098	of scientists	-0.19641924
-0.750741	international scientists	-0.21634586
-1.0651598	gene scientists	-0.24647361
-1.5865742	scientists complete	-0.15911539
-0.58900094	complete sequencing	-0.15911539
-2.3010323	the sequencing	-0.21634586
-0.44046524	sequencing of	-0.15911539
-0.55080146	team of	-0.15911539
-1.060396	sequence of	-0.18678859
-0.71359336	comprises of	-0.15911539
-0.14518735	pairs of	-0.34932885
-1.371279	genes of	-0.15911539
-0.55080146	goal of	-0.15911539
-0.75222945	cause of	-0.1811111
-0.55080146	clusters of	-0.21634586
-0.55080146	function of	-0.15911539
-0.55080146	number of	-0.15911539
-0.55080146	forms of	-0.15911539
-0.55080146	% of	-0.15911539
-0.95932996	total of	-0.2229323
-1.283626	chromosomes of	-0.15911539
-0.55080146	symptoms of	-0.15911539
-0.55080146	consortium of	-0.21634586
-0.33365542	pair of	-0.31984228
-0.44046524	range of	-0.21634586
-0.55080146	onset of	-0.24647361
-0.95932996	up of	-0.15911539
-0.55080146	form of	-0.15911539
-0.44046524	kinds of	-0.15911539
-0.55080146	percent of	-0.15911539
-0.55080146	sets of	-0.15911539
-0.55080146	group of	-0.21634586
-0.55080146	aim of	-0.15911539
-0.55080146	groups of	-0.15911539
-0.8161823	order of	-0.15911539
-0.71359336	result of	-0.21634586
-0.55080146	kind of	-0.15911539
-0.8161823	population of	-0.37141237
-0.7977067	death of	-0.31984228
-0.8846817	princess of	-0.24647361
-0.8161823	office of	-0.21634586
-0.95932996	commissioner of	-0.15911539
-1.0536488	information of	-0.15911539
-0.44046524	head of	-0.15911539
-0.55080146	vicinity of	-0.15911539
-0.95932996	one of	-0.15911539
-1.1219563	weekend of	-0.21634586
-1.1282703	work of	-0.15911539
-1.1219563	case of	-0.15911539
-1.0536488	cases of	-0.15911539
-0.55080146	constable of	-0.15911539
-0.95932996	officials of	-0.15911539
-0.55080146	vacation of	-0.15911539
-0.55080146	closure of	-0.21634586
-0.6023815	return of	-0.21634586
-0.8634676	shutdown of	-0.15911539
-0.55080146	sealing of	-0.19641924
-0.55080146	congresses of	-0.19641924
-0.55080146	middle of	-0.21634586
-0.8161823	city of	-0.24647361
-0.8161823	deaths of	-0.15911539
-1.2159773	reactor of	-0.15911539
-0.6023815	approval of	-0.15911539
-0.44046524	dispatch of	-0.37141237
-0.6697978	<s> the	-0.32809952
-0.7509179	of the	-0.17638695
-1.2351758	to the	-0.19920309
-1.0497813	, the	-0.17273164
-1.0698578	said the	-0.18678859
-0.6809414	that the	-0.31185088
-0.57575476	completed the	-0.19641924
-1.0163679	is the	-0.19641924
-0.70860445	including the	-0.18678859
-0.46248043	in the	-0.25005764
-1.4503545	. the	-0.2207257
-1.6015378	and the	-0.15911539
-1.2824234	as the	-0.15911539
-0.8261093	prevent the	-0.15911539
-0.5520372	from the	-0.26111796
-0.72599137	by the	-0.1811111
-1.397449	are the	-0.15911539
-0.26042217	on the	-0.21582392
-1.0769545	about the	-0.15911539
-0.6913626	for the	-0.1811111
-0.44414485	decrypted the	-0.21634586
-0.17640409	over the	-0.27077913
-0.9731952	made the	-0.15911539
-0.9731952	during the	-0.15911539
-0.8741277	; the	-0.15911539
-1.0769545	all the	-0.15911539
-0.8261093	set the	-0.15911539
-0.5561614	far the	-0.15911539
-1.1189592	with the	-0.15911539
-0.8261093	find the	-0.15911539
-0.6079632	caused the	-0.15911539
-0.5561614	while the	-0.15911539
-1.1972872	not the	-0.15911539
-0.5561614	whether the	-0.15911539
-0.5561614	says the	-0.15911539
-0.5561614	when the	-0.15911539
-0.5561614	if the	-0.15911539
-0.44414485	concerning the	-0.15911539
-0.5561614	along the	-0.15911539
-0.5561614	happened the	-0.15911539
-0.8261093	monitor the	-0.21634586
-1.241345	today the	-0.15911539
-1.070945	discussed the	-0.15911539
-0.5561614	welcomed the	-0.37141237
-0.5561614	expected the	-0.19641924
-0.8261093	supervise the	-0.15911539
-0.8261093	ensuring the	-0.15911539
-0.5561614	anticipated the	-0.15911539
-0.9731952	oversee the	-0.15911539
-0.5561614	expect the	-0.15911539
-1.9115427	<s> chromosome	-0.24647361
-1.9866638	of chromosome	-0.19641924
-2.3339653	the chromosome	-0.15911539
-1.7705318	said chromosome	-0.15911539
-1.8130983	that chromosome	-0.24647361
-1.2623245	human chromosome	-0.15911539
-1.7329443	's chromosome	-0.15911539
-0.58400077	fourth chromosome	-0.19641924
-1.8785188	a chromosome	-0.15911539
-1.6158746	for chromosome	-0.15911539
-1.2678447	chromosome linked	-0.21634586
-1.350976	is linked	-0.24647361
-1.4671435	gene linked	-0.15911539
-1.6611215	are linked	-0.15911539
-0.88374186	data linked	-0.15911539
-1.1940154	were linked	-0.21634586
-1.2722524	material linked	-0.15911539
-1.5135547	chromosome to	-0.21634586
-0.122913286	linked to	-0.20227003
-1.727669	, to	-0.15911539
-1.1874061	completed to	-0.15911539
-1.245292	is to	-0.19641924
-0.5643275	tools to	-0.18678859
-1.3264328	as to	-0.15911539
-1.1030397	years to	-0.15911539
-0.5643275	crucial to	-0.15911539
-0.8414387	ultimately to	-0.15911539
-0.8414387	lead to	-0.15911539
-0.8414387	researches to	-0.15911539
-0.4497234	critical to	-0.15911539
-0.4497234	related to	-0.19641924
-0.5643275	contracted to	-0.15911539
-0.99486005	evidence to	-0.15911539
-1.1792011	work to	-0.21634586
-0.5643275	28 to	-0.24647361
-0.5643275	rise to	-0.15911539
-0.5643275	connected to	-0.15911539
-0.61647266	inspectors to	-0.27489734
-0.8414387	sent to	-0.15911539
-0.61647266	soon to	-0.15911539
-0.5643275	possible to	-0.21634586
-1.4144434	korea to	-0.21634586
-0.5643275	forward to	-0.15911539
-0.99989086	return to	-0.21634586
-0.5643275	sufficient to	-0.15911539
-0.37176713	envoy to	-0.2229323
-0.4497234	visit to	-0.21634586
-1.0982538	yongbyon to	-0.15911539
-0.99486005	flights to	-0.15911539
-0.61647266	June to	-0.24647361
-1.2824118	reactor to	-0.15911539
-0.61647266	enough to	-0.15911539
-1.2342186	rain to	-0.15911539
-0.5643275	came to	-0.15911539
-0.5643275	committed to	-0.15911539
-2.261437	of early	-0.15911539
-2.12212	the early	-0.15911539
-1.8192017	to early	-0.15911539
-0.7603108	an early	-0.15911539
-1.7055444	have early	-0.15911539
-1.3999923	including early	-0.15911539
-2.0857267	in early	-0.15911539
-2.071793	and early	-0.15911539
-1.7297668	from early	-0.15911539
-1.0500572	urges early	-0.15911539
-1.7000593	early dementia	-0.15911539
-1.7247431	<s> -LRB-	-0.2229323
-0.5890616	acid -LRB-	-0.15911539
-1.0650269	6th -LRB-	-0.15911539
-2.2300694	<s> afp	-0.15911539
-0.7670096	-LRB- afp	-0.18678859
-2.4771936	, afp	-0.15911539
-1.4106725	chromosome ,	-0.15911539
-0.8543499	afp ,	-0.19641924
-0.707243	paris ,	-0.18678859
-1.4461458	said ,	-0.15911539
-1.1241504	completed ,	-0.15911539
-1.1551439	14 ,	-0.15911539
-1.3877307	is ,	-0.15911539
-0.9521183	diseases ,	-0.20939663
-1.374501	's ,	-0.15911539
-0.80767846	nature ,	-0.15911539
-1.3450632	genes ,	-0.15911539
-0.9554918	treatments ,	-0.15911539
-0.707243	genoscope ,	-0.15911539
-0.9475507	research ,	-0.15911539
-0.80767846	center ,	-0.15911539
-0.80767846	system ,	-0.15911539
-1.0390599	disease ,	-0.15911539
-0.80767846	studies ,	-0.15911539
-0.80767846	paraplegia ,	-0.15911539
-0.9475507	children ,	-0.15911539
-0.9475507	teeth ,	-0.21634586
-0.9475507	states ,	-0.15911539
-0.707243	years ,	-0.18678859
-0.71064997	20 ,	-0.21634586
-0.80767846	21 ,	-0.15911539
-0.54616517	france-presse ,	-0.15911539
-1.0390599	sequenced ,	-0.15911539
-0.9475507	science ,	-0.15911539
-0.80767846	illness ,	-0.15911539
-0.54616517	20th ,	-0.21634586
-1.0390599	syndrome ,	-0.15911539
-0.54616517	magazine ,	-0.15911539
-0.54616517	period ,	-0.15911539
-0.54616517	orders ,	-0.15911539
-1.2009368	diana ,	-0.15911539
-0.9475507	6th ,	-0.15911539
-0.9105853	london ,	-0.15911539
-0.9475507	1997 ,	-0.15911539
-1.3364451	computers ,	-0.15911539
-1.0390599	information ,	-0.15911539
-1.2070233	stevens ,	-0.15911539
-0.54616517	however ,	-0.37141237
-1.1049306	weekend ,	-0.15911539
-0.7894191	week ,	-0.18678859
-0.80767846	wales ,	-0.15911539
-0.80767846	29 ,	-0.21634586
-0.54616517	indicates ,	-0.15911539
-0.9475507	department ,	-0.15911539
-0.9475507	council ,	-0.15911539
-0.9475507	spokesman ,	-0.15911539
-1.1730975	johndroe ,	-0.15911539
-0.80767846	issue ,	-0.24647361
-0.80767846	yesterday ,	-0.21634586
-0.80767846	hill ,	-0.15911539
-0.80767846	talks ,	-0.21634586
-0.52098054	india ,	-0.31984228
-1.0464076	flooding ,	-0.15911539
-1.0390599	mumbai ,	-0.15911539
-0.54616517	west ,	-0.15911539
-1.0464076	September ,	-0.15911539
-0.80767846	year ,	-0.21634586
-0.80767846	billion ,	-0.15911539
-0.80767846	flooded ,	-0.15911539
-0.54616517	disastrously ,	-0.15911539
-0.54616517	ago ,	-0.15911539
-2.0579019	, paris	-0.24647361
-2.1873937	in paris	-0.15911539
-1.7781612	from paris	-0.15911539
-1.0628564	1997 paris	-0.21634586
-2.0959	of january	-0.19641924
-2.4771936	, january	-0.21634586
-1.7867785	from january	-0.15911539
-1.1904328	january 2	-0.21634586
-1.356194	afp -RRB-	-0.15911539
-0.58760965	2 -RRB-	-0.15911539
-1.0611517	dna -RRB-	-0.15911539
-0.58760965	2nd -RRB-	-0.15911539
-0.58760965	thursday -RRB-	-0.15911539
-1.3603069	-RRB- an	-0.15911539
-1.4264846	including an	-0.15911539
-1.6560403	for an	-0.15911539
-1.3600159	- an	-0.15911539
-2.5465841	<s> international	-0.15911539
-2.415754	of international	-0.21634586
-2.5540385	the international	-0.15911539
-0.7651202	an international	-0.15911539
-2.193339	and international	-0.24647361
-1.4326757	international team	-0.15911539
-1.1394918	scientists said	-0.37141237
-1.265803	, said	-0.21137084
-1.1630051	genoscope said	-0.15911539
-1.3230144	report said	-0.21634586
-0.5818498	france said	-0.15911539
-1.58492	police said	-0.15911539
-0.87522614	spokeswoman said	-0.15911539
-1.161342	also said	-0.21634586
-1.3230144	bureau said	-0.15911539
-1.0437963	officials said	-0.21634586
-0.6767721	johndroe said	-0.2229323
-0.87522614	hill said	-0.15911539
-0.5818498	official said	-0.15911539
-1.8956623	, that	-0.15911539
-0.7187036	said that	-0.26457405
-1.2439638	14 that	-0.15911539
-1.3729061	alzheimer that	-0.15911539
-1.5334545	's that	-0.15911539
-1.4728236	people that	-0.15911539
-0.5663932	illustrates that	-0.15911539
-0.9371978	genes that	-0.1811111
-1.7253246	and that	-0.15911539
-0.6186263	treatments that	-0.21634586
-0.8453571	paraplegia that	-0.15911539
-1.0004494	states that	-0.15911539
-0.4511293	shows that	-0.15911539
-0.5663932	noted that	-0.15911539
-1.0004494	accident that	-0.15911539
-0.5663932	out that	-0.15911539
-0.37281442	speculation that	-0.19641924
-1.2439638	investigating that	-0.15911539
-1.1873834	week that	-0.21634586
-1.0004494	evidence that	-0.21634586
-0.4511293	stated that	-0.15911539
-0.5663932	showing that	-0.15911539
-0.5663932	reported that	-0.15911539
-0.8453571	conjecture that	-0.15911539
-0.37281442	indicated that	-0.15911539
-0.5663932	expressed that	-0.15911539
-0.5663932	indicate that	-0.15911539
-1.2933154	today that	-0.19641924
-1.1873834	agreement that	-0.15911539
-0.8453571	ensure that	-0.15911539
-0.8453571	believe that	-0.21634586
-0.73513764	plutonium that	-0.21634586
-1.3011959	pyongyang that	-0.15911539
-0.5663932	hoped that	-0.15911539
-0.5663932	believed that	-0.15911539
-2.5864677	<s> they	-0.15911539
-1.8710756	that they	-0.20428051
-2.427459	. they	-0.15911539
-2.2223377	and they	-0.15911539
-1.3208333	they have	-0.15911539
-1.0417292	may have	-0.15911539
-0.8738229	americans have	-0.15911539
-0.58113515	humans have	-0.15911539
-1.0925083	chromosomes have	-0.24647361
-0.8738229	beings have	-0.24647361
-0.8738229	order have	-0.15911539
-1.0417292	1997 have	-0.15911539
-1.57791	police have	-0.21634586
-1.3190912	not have	-0.15911539
-0.8738229	might have	-0.15911539
-1.3190912	bureau have	-0.15911539
-1.0417292	department have	-0.15911539
-1.1586345	mumbai have	-0.15911539
-1.5778424	scientists completed	-0.15911539
-1.7511094	have completed	-0.15911539
-1.5328476	been completed	-0.15911539
-1.3600159	had completed	-0.15911539
-1.9680442	<s> human	-0.24647361
-1.833999	of human	-0.19641924
-1.6560403	for human	-0.15911539
-1.1865013	even human	-0.15911539
-0.4866046	chromosome 14	-0.28635326
-1.5346898	scientists is	-0.19641924
-2.1151404	that is	-0.15911539
-1.3309689	14 is	-0.15911539
-1.445595	this is	-0.19641924
-0.5832826	geneticists is	-0.15911539
-1.1681801	years is	-0.15911539
-1.445595	which is	-0.19641924
-1.2590648	there is	-0.24647361
-0.8780462	office is	-0.2229323
-0.9953503	stevens is	-0.24647361
-1.1668084	stevenson is	-0.15911539
-1.6489617	to many	-0.37141237
-1.8624353	on many	-0.15911539
-2.061789	of diseases	-0.15911539
-2.2471976	to diseases	-0.15911539
-0.46544442	many diseases	-0.31984228
-1.4779751	cause diseases	-0.15911539
-1.3566432	these diseases	-0.15911539
-1.8113196	, including	-0.1811111
-1.4826825	diseases including	-0.15911539
-2.2223377	and including	-0.15911539
-1.1865013	sequenced including	-0.15911539
-2.6871295	the early-onset	-0.15911539
-2.2534122	and early-onset	-0.15911539
-1.7867785	from early-onset	-0.15911539
-2.0456884	of alzheimer	-0.18678859
-2.5002024	the alzheimer	-0.15911539
-0.38307065	early-onset alzheimer	-0.24647361
-1.1813939	all alzheimer	-0.15911539
-0.8851775	early-stage alzheimer	-0.15911539
-1.6390579	with alzheimer	-0.15911539
-1.1016421	alzheimer 's	-0.15911539
-1.6136048	people 's	-0.15911539
-1.0500572	children 's	-0.15911539
-1.0500572	being 's	-0.15911539
-0.99661815	diana 's	-0.18678859
-1.3990777	london 's	-0.21634586
-0.87946314	england 's	-0.15911539
-1.1695676	stevenson 's	-0.15911539
-1.5738155	korea 's	-0.22900271
-1.4990455	us 's	-0.15911539
-2.2916873	that may	-0.15911539
-0.88951325	30s may	-0.15911539
-1.6625396	computers may	-0.21634586
-1.0648457	may strike	-0.15911539
-1.1891475	can strike	-0.15911539
-2.1923032	to people	-0.15911539
-1.5142767	alzheimer people	-0.15911539
-0.46447527	strike people	-0.21634586
-1.1800805	200,000 people	-0.15911539
-1.0571826	brought people	-0.15911539
-0.58616245	among people	-0.15911539
-0.4265564	43 people	-0.15911539
-1.5674646	<s> in	-0.2229323
-1.1075438	paris in	-0.15911539
-1.8046913	that in	-0.15911539
-1.3686178	alzheimer in	-0.15911539
-0.70094466	people in	-0.31984228
-0.6179072	published in	-0.21634586
-1.1075438	genoscope in	-0.15911539
-0.9985783	identified in	-0.19641924
-0.45066014	patients in	-0.21634586
-0.5657035	sufferers in	-0.15911539
-0.5657035	state in	-0.15911539
-1.1075438	result in	-0.15911539
-1.2936587	diana in	-0.15911539
-1.4468488	police in	-0.15911539
-1.4596422	computers in	-0.15911539
-1.1029769	probe in	-0.15911539
-0.5657035	located in	-0.19641924
-0.84404707	burglaries in	-0.21634586
-1.2406911	bureau in	-0.15911539
-1.1029769	cases in	-0.15911539
-0.5657035	crash in	-0.15911539
-1.1029769	reactors in	-0.15911539
-0.6179072	developments in	-0.15911539
-1.1029769	cooperation in	-0.15911539
-1.2977045	pyongyang in	-0.15911539
-1.1029769	produced in	-0.15911539
-0.84404707	down in	-0.21634586
-1.1075438	flooding in	-0.15911539
-0.9985783	flights in	-0.21634586
-0.84404707	city in	-0.15911539
-0.6179072	casualties in	-0.21634586
-1.2896503	reactor in	-0.15911539
-1.0033675	killed in	-0.15911539
-1.2406911	rain in	-0.15911539
-0.5657035	development in	-0.15911539
-0.5657035	resulting in	-0.15911539
-2.2052574	in their	-0.37141237
-1.6617446	with their	-0.15911539
-0.88999826	their 30s	-0.2229323
-1.1461248	-RRB- .	-0.15911539
-1.4017844	have .	-0.15911539
-1.2402521	alzheimer .	-0.15911539
-1.3486629	's .	-0.15911539
-1.3271031	people .	-0.15911539
-0.8005197	30s .	-0.24647361
-0.5422302	date .	-0.15911539
-0.5934615	dna .	-0.21634586
-1.08144	genes .	-0.24647361
-1.2207623	gene .	-0.15911539
-0.5422302	fragments .	-0.24647361
-0.5422302	malfunctioning .	-0.24647361
-1.0269337	disease .	-0.15911539
-0.9377024	identified .	-0.15911539
-0.9377024	states .	-0.15911539
-1.2402521	chromosomes .	-0.37141237
-0.5422302	22 .	-0.21634586
-0.5422302	america .	-0.15911539
-0.8005197	beings .	-0.15911539
-0.9377024	being .	-0.15911539
-0.5422302	segments .	-0.15911539
-0.8005197	country .	-0.15911539
-0.5422302	22nd .	-0.21634586
-1.0269337	syndrome .	-0.15911539
-0.5422302	dnas .	-0.15911539
-0.5422302	prominent .	-0.15911539
-0.8005197	population .	-0.15911539
-1.2561663	death .	-0.15911539
-0.9377024	6th .	-0.15911539
-0.9377024	accident .	-0.37141237
-1.2962672	police .	-0.15911539
-0.9377024	commissioner .	-0.21634586
-1.076274	computers .	-0.21634586
-1.0269337	probe .	-0.15911539
-0.9021123	stevens .	-0.24647361
-0.5422302	britain .	-0.15911539
-1.0269337	newcastle .	-0.15911539
-0.5934615	tyne .	-0.21634586
-0.4345516	days .	-0.37141237
-1.0908502	weekend .	-0.21634586
-0.94621277	taken .	-0.21634586
-0.5422302	lost .	-0.15911539
-0.78286135	work .	-0.24647361
-1.2147398	investigation .	-0.15911539
-0.8005197	chief .	-0.21634586
-0.5422302	uk .	-0.15911539
-0.8005197	river .	-0.15911539
-0.8005197	losses .	-0.15911539
-0.5422302	involved .	-0.15911539
-0.8005197	england .	-0.15911539
-0.5422302	loss .	-0.15911539
-0.5422302	them .	-0.15911539
-1.2802601	korea .	-0.15911539
-1.0269337	reactors .	-0.21634586
-0.4345516	hyun .	-0.37141237
-1.1461248	shutdown .	-0.15911539
-1.098105	agreement .	-0.15911539
-0.9377024	countries .	-0.21634586
-0.5422302	weapons .	-0.37141237
-0.4345516	July .	-0.37141237
-1.0269337	areas .	-0.15911539
-0.4345516	stopped .	-0.21634586
-0.94621277	casualties .	-0.15911539
-0.8005197	billion .	-0.21634586
-1.1776754	reactor .	-0.15911539
-0.8005197	halt .	-0.15911539
-0.5422302	legislatures .	-0.15911539
-0.5934615	killed .	-0.21634586
-0.8005197	flooded .	-0.15911539
-0.5422302	resulted .	-0.15911539
-0.5422302	halted .	-0.15911539
-1.707846	<s> this	-0.2229323
-2.3801923	of this	-0.15911539
-2.3754685	, this	-0.15911539
-2.216838	that this	-0.15911539
-1.058548	made this	-0.15911539
-0.58688545	approve this	-0.15911539
-2.3145921	the fourth	-0.24647361
-1.6977681	chromosome whose	-0.15911539
-1.5383025	chromosomes whose	-0.15911539
-1.8062788	the sequence	-0.31984228
-0.88951325	whose sequence	-0.15911539
-0.88951325	set sequence	-0.15911539
-1.3350013	14 has	-0.23417062
-1.1707909	sequence has	-0.15911539
-1.496733	chromosomes has	-0.15911539
-1.0500572	express has	-0.15911539
-0.87946314	theft has	-0.15911539
-1.3990777	stevens has	-0.24647361
-1.2623245	larceny has	-0.15911539
-1.2611161	case has	-0.15911539
-1.1695676	stevenson has	-0.15911539
-0.9970872	pyongyang has	-0.21634586
-0.5485394	have been	-0.25563708
-0.5307422	has been	-0.28989607
-1.3643287	had been	-0.15911539
-2.321484	to date	-0.15911539
-2.438217	. it	-0.15911539
-2.2534122	and it	-0.15911539
-1.0650269	total it	-0.15911539
-1.3639678	14 comprises	-0.15911539
-0.64222556	it comprises	-0.15911539
-1.1867939	comprises more	-0.15911539
-2.2223377	and more	-0.15911539
-1.4826825	as more	-0.15911539
-0.588335	consist more	-0.15911539
-0.2521251	more than	-0.18678859
-1.0648457	than 87	-0.15911539
-1.6282432	over 87	-0.21634586
-0.4665781	87 million	-0.19641924
-0.8851775	million pairs	-0.21634586
-0.64001495	23 pairs	-0.24647361
-1.180783	three pairs	-0.15911539
-0.8851775	14th pairs	-0.21634586
-0.58688545	8700 pairs	-0.15911539
-0.8851775	3 pairs	-0.15911539
-2.4970212	of dna	-0.15911539
-1.1895194	-LRB- dna	-0.15911539
-0.88951325	million dna	-0.15911539
-2.3010323	the study	-0.24647361
-1.4877825	this study	-0.15911539
-0.88951325	study published	-0.15911539
-1.5388284	was published	-0.15911539
-1.1895194	result published	-0.15911539
-2.6871295	the weekly	-0.21634586
-1.1895194	british weekly	-0.15911539
-1.0650269	science weekly	-0.15911539
-2.68069	the british	-0.15911539
-1.0648457	weekly british	-0.15911539
-1.1904328	british scientific	-0.15911539
-0.58900094	scientific journal	-0.15911539
-1.0648457	science journal	-0.15911539
-0.4665781	journal nature	-0.15911539
-0.88999826	nature illustrates	-0.15911539
-2.4970212	of 1,050	-0.15911539
-1.1895194	comprises 1,050	-0.15911539
-1.8591369	by 1,050	-0.15911539
-2.2362082	of genes	-0.15911539
-2.300739	the genes	-0.15911539
-0.38128498	1,050 genes	-0.24647361
-0.46254337	defective genes	-0.21634586
-1.0493513	those genes	-0.15911539
-1.1668084	disease genes	-0.21634586
-0.46254337	flawed genes	-0.21634586
-0.9307385	these genes	-0.21634586
-0.5832826	1050 genes	-0.15911539
-0.5832826	liangcong genes	-0.15911539
-0.5832826	diseased genes	-0.15911539
-1.7768366	to and	-0.15911539
-1.0153524	, and	-0.17593539
-1.3421528	diseases and	-0.15911539
-1.4754896	genes and	-0.24647361
-0.84667116	system and	-0.19641924
-0.56708395	vision and	-0.21634586
-0.84667116	impairments and	-0.15911539
-0.84667116	21 and	-0.15911539
-1.1077521	sequenced and	-0.15911539
-0.56708395	now and	-0.15911539
-0.84667116	illness and	-0.15911539
-1.251252	; and	-0.15911539
-0.56708395	sight and	-0.15911539
-0.84667116	damages and	-0.15911539
-0.56708395	21st and	-0.21634586
-0.56708395	nation and	-0.15911539
-0.56708395	default and	-0.15911539
-0.56708395	eyesight and	-0.15911539
-1.0023286	accident and	-0.21634586
-0.9368957	computers and	-0.2229323
-0.84667116	river and	-0.15911539
-1.3844407	us and	-0.15911539
-1.0023286	bush and	-0.21634586
-0.84667116	issue and	-0.15911539
-1.251252	shutdown and	-0.24647361
-0.84667116	yesterday and	-0.15911539
-0.45159894	winds and	-0.23286562
-0.736099	flooding and	-0.21634586
-0.56708395	domestic and	-0.2229323
-1.0068723	June and	-0.15911539
-0.56708395	disasters and	-0.15911539
-0.84667116	halt and	-0.15911539
-0.84667116	storms and	-0.15911539
-0.56708395	injuries and	-0.15911539
-1.8150045	of gene	-0.19641924
-2.5002024	the gene	-0.15911539
-2.166156	and gene	-0.19641924
-0.46495956	french gene	-0.24647361
-1.180783	disease gene	-0.15911539
-1.058548	or gene	-0.15911539
-1.0679071	gene fragments	-0.24647361
-2.7139301	the goal	-0.24647361
-2.5121977	of geneticists	-0.15911539
-1.6489617	to provide	-0.2229323
-0.58900094	finally provide	-0.15911539
-1.06499	provide diagnostic	-0.24647361
-0.58900094	offer diagnostic	-0.15911539
-0.4665781	diagnostic tools	-0.37141237
-2.321484	to identify	-0.15911539
-2.68069	the defective	-0.15911539
-0.8893922	identify defective	-0.15911539
-2.0218585	the cause	-0.24647361
-2.240383	that cause	-0.15911539
-1.78679	's cause	-0.15911539
-1.8497207	on cause	-0.15911539
-0.38342866	often cause	-0.15911539
-1.784455	is so	-0.15911539
-1.4877825	diseases so	-0.15911539
-2.346244	, as	-0.15911539
-0.88374186	so as	-0.15911539
-0.58616245	such as	-0.15911539
-0.58616245	well as	-0.15911539
-0.88374186	damages as	-0.15911539
-0.88374186	sent as	-0.21634586
-1.0571826	soon as	-0.21634586
-2.321484	to arrive	-0.15911539
-0.5893043	arrive eventually	-0.15911539
-0.5893043	eventually at	-0.15911539
-0.64222556	provide treatments	-0.15911539
-0.58900094	at treatments	-0.15911539
-1.8806568	that can	-0.19641924
-1.0669917	which can	-0.15911539
-1.190357	can prevent	-0.15911539
-2.2916873	that those	-0.15911539
-0.88951325	prevent those	-0.15911539
-1.8629966	on those	-0.15911539
-2.0767555	<s> from	-0.15911539
-0.9696392	genes from	-0.2229323
-2.0124302	and from	-0.15911539
-0.5818498	suffer from	-0.15911539
-1.3230144	report from	-0.15911539
-0.93181324	stolen from	-0.37141237
-0.87522614	directly from	-0.15911539
-1.161342	materials from	-0.15911539
-0.5818498	officers from	-0.15911539
-0.5818498	break from	-0.15911539
-1.2526182	material from	-0.21634586
-0.5818498	spokeswomen from	-0.15911539
-1.0437963	monsoons from	-0.15911539
-1.7896931	from malfunctioning	-0.24647361
-0.90620995	scientists led	-0.37141237
-1.1893888	probe led	-0.15911539
-1.488249	investigation led	-0.15911539
-0.38021708	led by	-0.19641924
-1.0417292	up by	-0.15911539
-0.8738229	lead by	-0.15911539
-0.58113515	formed by	-0.15911539
-1.0435692	caused by	-0.15911539
-0.63400865	brought by	-0.19641924
-0.58113515	headed by	-0.15911539
-1.1586345	cooperation by	-0.15911539
-0.8495611	agreement by	-0.15911539
-1.1586345	produced by	-0.15911539
-0.8738229	hit by	-0.15911539
-0.58113515	battered by	-0.15911539
-1.0435692	approval by	-0.15911539
-0.58113515	attacked by	-0.15911539
-2.4771936	, genoscope	-0.15911539
-1.8591369	by genoscope	-0.15911539
-0.88951325	center genoscope	-0.15911539
-2.2531786	<s> a	-0.15911539
-1.7307968	of a	-0.1811111
-1.7581749	to a	-0.15911539
-1.7221675	, a	-0.25563708
-0.9226009	-RRB- a	-0.21634586
-1.7619572	that a	-0.24647361
-1.6643093	have a	-0.15911539
-2.0034027	in a	-0.15911539
-1.7831771	on a	-0.15911539
-0.63251996	include a	-0.15911539
-1.569204	with a	-0.37141237
-1.3113495	not a	-0.15911539
-0.9875804	after a	-0.19641924
-1.0397568	signed a	-0.15911539
-0.5797094	produce a	-0.15911539
-0.5797094	urged a	-0.15911539
-1.8581791	by french	-0.21634586
-1.9884201	a french	-0.15911539
-2.68069	the research	-0.15911539
-1.4879259	gene research	-0.24647361
-1.0657537	research center	-0.19641924
-1.3657779	14 contains	-0.15911539
-1.6969359	<s> two	-0.21634586
-1.7578566	the two	-0.25332803
-1.3557467	that two	-0.2229323
-1.5970627	has two	-0.15911539
-0.5854407	contains two	-0.15911539
-1.2680055	past two	-0.15911539
-0.9351909	these two	-0.15911539
-1.3431804	investigating two	-0.19641924
-1.4189626	two clusters	-0.21634586
-1.6666048	chromosome are	-0.15911539
-2.1732626	that are	-0.15911539
-0.9348381	they are	-0.15911539
-2.1164167	and are	-0.15911539
-1.5083497	chromosomes are	-0.15911539
-1.4611036	which are	-0.15911539
-1.2689178	there are	-0.15911539
-1.1751391	cases are	-0.15911539
-2.7139301	the function	-0.15911539
-2.5121977	of our	-0.15911539
-2.3037071	the immune	-0.21634586
-2.3100488	to immune	-0.15911539
-0.5890616	our immune	-0.15911539
-0.38426536	immune system	-0.2229323
-1.0648457	than 60	-0.21634586
-1.6282432	over 60	-0.15911539
-2.4970212	of disease	-0.15911539
-1.5388284	alzheimer disease	-0.15911539
-1.0650269	60 disease	-0.21634586
-1.1189331	been identified	-0.20939663
-2.2136352	in earlier	-0.15911539
-0.8893922	earlier studies	-0.15911539
-0.8893922	previous studies	-0.15911539
-1.3059967	afp on	-0.15911539
-0.8682551	study on	-0.24647361
-1.0359776	published on	-0.15911539
-0.8682551	studies on	-0.15911539
-0.8682551	researches on	-0.15911539
-0.8682551	data on	-0.21634586
-1.3652937	london on	-0.15911539
-1.14797	information on	-0.15911539
-1.14797	newcastle on	-0.15911539
-0.8682551	place on	-0.21634586
-1.411427	investigation on	-0.15911539
-1.14797	materials on	-0.15911539
-0.5782883	area on	-0.15911539
-0.84453106	material on	-0.15911539
-0.5782883	hidden on	-0.15911539
-1.14797	between on	-0.15911539
-1.522018	korea on	-0.21634586
-1.14797	cooperation on	-0.15911539
-1.9960276	a great	-0.15911539
-0.5893043	great number	-0.15911539
-1.490123	diseases such	-0.15911539
-2.4970212	of spastic	-0.15911539
-1.810348	's spastic	-0.15911539
-1.488249	as spastic	-0.15911539
-0.38426536	spastic paraplegia	-0.19641924
-2.300872	that afflicts	-0.15911539
-0.58900094	afflicts young	-0.15911539
-0.58900094	strikes young	-0.15911539
-0.46637526	young children	-0.15911539
-1.06499	include children	-0.15911539
-2.071449	, missing	-0.21634586
-1.3641114	; missing	-0.15911539
-2.474022	, teeth	-0.15911539
-0.46637526	missing teeth	-0.19641924
-2.474022	, several	-0.15911539
-1.3641114	; several	-0.15911539
-1.0658298	several forms	-0.15911539
-2.1018631	of vision	-0.21634586
-1.5942311	and hearing	-0.21634586
-0.88999826	hearing impairments	-0.15911539
-2.5864677	<s> about	-0.15911539
-1.6871935	are about	-0.15911539
-1.1865013	materials about	-0.21634586
-0.588335	bring about	-0.15911539
-1.696244	are 200,000	-0.15911539
-0.7670096	about 200,000	-0.15911539
-0.5890616	around 200,000	-0.15911539
-0.50913423	200,000 americans	-0.19641924
-0.88999826	americans suffer	-0.21634586
-2.0777557	, accounting	-0.21634586
-0.759835	sequence for	-0.15911539
-0.58400077	accounting for	-0.21634586
-0.58400077	vital for	-0.15911539
-0.58400077	accounted for	-0.15911539
-0.58400077	accounts for	-0.15911539
-0.87946314	spokeswoman for	-0.21634586
-0.58400077	pushes for	-0.15911539
-0.46302557	called for	-0.19641924
-1.0500572	spokesman for	-0.15911539
-1.0500572	flights for	-0.15911539
-1.2436982	for 5	-0.24647361
-0.5893043	5 %	-0.24647361
-1.5383025	alzheimer patients	-0.15911539
-1.8093407	's patients	-0.15911539
-2.7139301	the entire	-0.15911539
-2.68069	the united	-0.15911539
-0.58900094	entire united	-0.15911539
-0.46637526	united states	-0.15911539
-1.3639678	report states	-0.15911539
-2.6460953	<s> humans	-0.15911539
-2.6871295	the total	-0.15911539
-2.206918	in total	-0.15911539
-1.5751542	a total	-0.37141237
-2.4933143	of 23	-0.15911539
-1.758512	have 23	-0.19641924
-1.5847069	of chromosomes	-0.25332803
-1.4264846	including chromosomes	-0.15911539
-1.1865013	three chromosomes	-0.15911539
-0.8880632	other chromosomes	-0.15911539
-2.3145921	the past	-0.20448452
-2.4970212	of three	-0.15911539
-2.4771936	, three	-0.15911539
-1.2857227	past three	-0.24647361
-1.1893888	three years	-0.24647361
-0.76705897	20 years	-0.19641924
-0.88951325	3 years	-0.15911539
-1.5325592	chromosomes 20	-0.15911539
-1.282121	past 20	-0.15911539
-1.2842228	pair 20	-0.15911539
-1.3608228	last 20	-0.21634586
-2.4901376	, 21	-0.15911539
-1.8500488	and 22	-0.21634586
-1.5838248	scientists decrypted	-0.15911539
-1.758512	have decrypted	-0.15911539
-1.7005177	chromosome crucial	-0.15911539
-2.321484	to symptoms	-0.15911539
-1.7000593	early disorders	-0.15911539
-1.1904328	-LRB- agence	-0.15911539
-0.5893043	agence france-presse	-0.15911539
-2.4901376	, 2nd	-0.15911539
-1.356194	-RRB- -	-0.15911539
-1.1136787	us -	-0.39902353
-0.88661796	moo -	-0.24647361
-0.46544442	six -	-0.37141237
-0.58760965	mid -	-0.21634586
-1.0100924	international consortium	-0.21634586
-2.7139301	the fourteenth	-0.15911539
-2.5540385	the pair	-0.15911539
-1.6783278	are pair	-0.15911539
-0.58760965	fourteenth pair	-0.15911539
-0.88661796	14th pair	-0.21634586
-0.58760965	4th pair	-0.15911539
-1.0021343	, which	-0.19502363
-1.1891475	syndrome which	-0.15911539
-1.9960276	a broad	-0.15911539
-0.58900094	broad range	-0.15911539
-0.58900094	wide range	-0.15911539
-1.0205184	early onset	-0.24647361
-1.3947172	to be	-0.2076937
-0.64222556	would be	-0.21634586
-1.5384457	been fully	-0.15911539
-1.2855655	be fully	-0.21634586
-1.5384457	been sequenced	-0.15911539
-0.46637526	fully sequenced	-0.15911539
-1.1891475	sequenced up	-0.15911539
-1.0648457	made up	-0.15911539
-1.0657537	up till	-0.15911539
-0.5893043	till now	-0.15911539
-2.362896	<s> over	-0.15911539
-1.9730811	of over	-0.21634586
-2.0510907	and over	-0.21634586
-1.2590648	larceny over	-0.15911539
-1.1681801	plutonium over	-0.15911539
-1.1668084	produced over	-0.15911539
-1.1668084	rains over	-0.15911539
-1.4537219	india over	-0.15911539
-1.3309689	rain over	-0.15911539
-0.8780462	storms over	-0.15911539
-0.5832826	talked over	-0.15911539
-2.5121977	of deoxyribonucleic	-0.15911539
-0.5893043	deoxyribonucleic acid	-0.15911539
-2.346244	, was	-0.15911539
-2.194504	that was	-0.15911539
-1.4663986	which was	-0.15911539
-0.85850626	there was	-0.24647361
-1.1094261	death was	-0.24647361
-1.4710284	india was	-0.15911539
-0.58616245	decades was	-0.15911539
-0.76692355	british science	-0.15911539
-2.2507367	and science	-0.15911539
-1.3663628	is made	-0.21634586
-1.3639678	house made	-0.21634586
-0.8893922	identify flawed	-0.15911539
-0.58900094	discover flawed	-0.15911539
-1.4880365	cause illness	-0.15911539
-0.58900094	causes illness	-0.15911539
-1.8500488	and ultimately	-0.15911539
-1.190357	can stop	-0.15911539
-1.615246	that these	-0.19641924
-2.416961	. these	-0.15911539
-0.58760965	stop these	-0.15911539
-0.58760965	preventing these	-0.15911539
-1.3557454	investigating these	-0.15911539
-1.6993073	are vital	-0.15911539
-1.0678784	as well	-0.21634586
-1.9960276	a wide	-0.15911539
-1.488249	diseases during	-0.15911539
-0.5890616	anesthesia during	-0.15911539
-0.5890616	occurred during	-0.15911539
-2.68069	the previous	-0.15911539
-1.0648457	during previous	-0.15911539
-1.4877825	diseases include	-0.15911539
-1.4877825	which include	-0.15911539
-1.9960276	a form	-0.15911539
-2.300872	that strikes	-0.15911539
-1.0606968	children ;	-0.15911539
-1.0606968	teeth ;	-0.15911539
-0.88661796	impairments ;	-0.15911539
-0.64077157	taken ;	-0.15911539
-1.356194	shutdown ;	-0.15911539
-1.0648457	60 kinds	-0.15911539
-0.64222556	several kinds	-0.21634586
-2.6460953	<s> around	-0.15911539
-1.490123	which accounted	-0.15911539
-1.6654971	for five	-0.15911539
-0.5893043	five percent	-0.15911539
-2.0959	of all	-0.15911539
-2.0197852	. all	-0.21634586
-2.2534122	and all	-0.21634586
-1.5409411	alzheimer sufferers	-0.15911539
-2.2136352	in america	-0.15911539
-0.8641381	human beings	-0.2229323
-1.0658298	23 sets	-0.15911539
-2.68069	the other	-0.15911539
-1.1891475	three other	-0.15911539
-1.5838248	scientists set	-0.15911539
-1.3639678	had set	-0.15911539
-2.3010323	the early-stage	-0.21634586
-2.3072407	to early-stage	-0.15911539
-0.88999826	early-stage low	-0.15911539
-0.5893043	low iq	-0.15911539
-2.68069	the report	-0.20448452
-1.3641114	afp report	-0.15911539
-1.9960276	a group	-0.21634586
-1.356194	they had	-0.15911539
-1.6482025	people had	-0.15911539
-1.0611517	it had	-0.15911539
-1.4207165	today had	-0.15911539
-1.0606968	bush had	-0.15911539
-1.2858531	human being	-0.15911539
-0.88951325	into being	-0.15911539
-0.5890616	money being	-0.15911539
-0.88999826	so far	-0.15911539
-2.474022	, shows	-0.15911539
-1.0648457	weekly shows	-0.15911539
-1.4901987	gene segments	-0.15911539
-2.7139301	the aim	-0.15911539
-2.321484	to offer	-0.15911539
-2.321484	to discover	-0.15911539
-2.2894247	that lead	-0.15911539
-1.4877825	investigation lead	-0.15911539
-2.2642996	and finally	-0.15911539
-1.8394078	two groups	-0.15911539
-1.6969022	early researches	-0.15911539
-0.8893922	earlier researches	-0.15911539
-2.5121977	of sight	-0.15911539
-0.88999826	hearing damages	-0.15911539
-2.212062	<s> there	-0.21634586
-1.8266149	said there	-0.21634586
-1.62102	that there	-0.2229323
-2.2223377	and there	-0.15911539
-2.245767	, with	-0.15911539
-1.607004	people with	-0.15911539
-1.0479603	identified with	-0.15911539
-0.8780462	country with	-0.37141237
-0.8780462	laptops with	-0.21634586
-0.5832826	detectives with	-0.15911539
-0.5832826	28-29 with	-0.15911539
-1.2590648	week with	-0.15911539
-1.0479603	telephone with	-0.15911539
-0.5832826	conversations with	-0.15911539
-1.1668084	cooperation with	-0.15911539
-1.7000593	early state	-0.15911539
-2.68069	the country	-0.15911539
-1.9884201	a country	-0.37141237
-2.7139301	the 20th	-0.21634586
-2.4901376	, 21st	-0.21634586
-2.2642996	and 22nd	-0.21634586
-2.68069	the order	-0.21634586
-0.8893922	whose order	-0.15911539
-1.6954827	are critical	-0.15911539
-1.5383025	chromosomes critical	-0.15911539
-0.7633269	early arzhermes	-0.37141237
-1.0648457	total arzhermes	-0.15911539
-0.88999826	arzhermes syndrome	-0.15911539
-2.4901376	, thursday	-0.15911539
-2.0630276	the 14th	-0.21634586
-1.2766458	are related	-0.21634586
-1.1891475	materials related	-0.15911539
-1.190357	can possibly	-0.15911539
-0.5893043	possibly contracted	-0.15911539
-2.7139301	the 4th	-0.15911539
-1.3658537	they consist	-0.15911539
-1.0657537	than 8700	-0.15911539
-2.5121977	of dnas	-0.15911539
-2.6155057	the result	-0.15911539
-1.0628564	research result	-0.15911539
-1.3600159	not result	-0.15911539
-0.588335	direct result	-0.15911539
-1.0657537	weekly magazine	-0.15911539
-2.4901376	, nation	-0.15911539
-1.6993073	are formed	-0.15911539
-1.8629954	by 1050	-0.15911539
-2.4771936	, or	-0.15911539
-1.6627688	genes or	-0.15911539
-1.1893888	information or	-0.24647361
-2.3072407	to find	-0.15911539
-0.8893922	ultimately find	-0.15911539
-2.300872	that causes	-0.15911539
-0.88999826	find cures	-0.15911539
-0.5893043	cures preventing	-0.15911539
-1.7896931	from coming	-0.15911539
-0.58900094	coming into	-0.15911539
-1.1891475	probe into	-0.15911539
-2.2136352	in france	-0.15911539
-2.321484	to liangcong	-0.15911539
-1.0657537	60 diseased	-0.15911539
-1.6993073	are quite	-0.15911539
-0.5893043	quite prominent	-0.15911539
-1.9960276	a kind	-0.15911539
-2.5121977	of convulsive	-0.15911539
-0.5893043	convulsive anesthesia	-0.15911539
-1.0657537	during enfant	-0.15911539
-0.5893043	enfant period	-0.15911539
-1.0657537	teeth default	-0.15911539
-2.1873937	in some	-0.15911539
-2.427459	. some	-0.21634586
-2.2223377	and some	-0.15911539
-1.6544858	with some	-0.15911539
-1.1905675	some eyesight	-0.15911539
-2.300872	that accounts	-0.15911539
-1.9884201	a population	-0.37141237
-0.8893922	arzhermes population	-0.15911539
-2.474022	, 3	-0.15911539
-1.2854215	past 3	-0.15911539
-0.88999826	their orders	-0.15911539
-1.4189626	two laptops	-0.19641924
-1.6650878	with inquiry	-0.21634586
-0.58900094	inquiry data	-0.21634586
-1.430424	any data	-0.15911539
-2.0944242	of diana	-0.15911539
-0.42800313	princess diana	-0.20448452
-2.3801923	of death	-0.15911539
-2.216468	the death	-0.21634586
-1.7754736	's death	-0.15911539
-1.8095716	and death	-0.19641924
-1.4164088	diana death	-0.15911539
-1.058548	' death	-0.21634586
-1.5268221	been stolen	-0.15911539
-1.4211631	diana stolen	-0.15911539
-1.527608	death stolen	-0.15911539
-0.94443125	were stolen	-0.2229323
-1.4771864	investigation stolen	-0.15911539
-2.3010323	the 6th	-0.19641924
-2.474022	, 6th	-0.15911539
-1.7190374	<s> london	-0.18678859
-2.6155057	the london	-0.15911539
-2.0579019	, london	-0.15911539
-1.7781612	from london	-0.15911539
-1.8093407	's daily	-0.21634586
-1.0092945	london daily	-0.15911539
-0.6425426	daily express	-0.15911539
-1.0657537	express noted	-0.15911539
-2.68069	the 1997	-0.21634586
-1.792428	in 1997	-0.15911539
-2.0218585	the car	-0.24647361
-1.1840854	paris car	-0.21634586
-1.9550785	a car	-0.15911539
-0.58760965	fatal car	-0.15911539
-0.58760965	straightforward car	-0.15911539
-0.34899643	car accident	-0.28767252
-2.2916873	that caused	-0.15911539
-1.3643287	had caused	-0.15911539
-0.88951325	directly caused	-0.15911539
-2.0456884	of princess	-0.4683224
-2.216468	the princess	-0.21634586
-2.3754685	, princess	-0.15911539
-2.216838	that princess	-0.15911539
-1.843232	on princess	-0.15911539
-0.8851775	into princess	-0.15911539
-1.978352	, were	-0.15911539
-1.6136048	people were	-0.15911539
-1.2623245	there were	-0.15911539
-1.3978952	diana were	-0.21634586
-1.499941	death were	-0.15911539
-0.87946314	burglaries were	-0.15911539
-0.87946314	cash were	-0.21634586
-0.58400077	break-ins were	-0.15911539
-1.1695676	areas were	-0.15911539
-1.1695676	mumbai were	-0.15911539
-2.68069	the office	-0.37141237
-0.64222556	his office	-0.37141237
-2.3037071	the former	-0.19641924
-1.4410149	by former	-0.21634586
-1.9899291	a former	-0.21634586
-2.0390234	the metropolitan	-0.37141237
-1.8477777	by metropolitan	-0.15911539
-1.9721543	a metropolitan	-0.15911539
-0.50845444	former metropolitan	-0.5475036
-2.2916873	that police	-0.15911539
-0.25205886	metropolitan police	-0.2860123
-0.18859564	northumbria police	-0.23114856
-1.1895471	former commissioner	-0.15911539
-1.6613494	police commissioner	-0.23417062
-1.3643287	report pointed	-0.24647361
-1.0650269	express pointed	-0.15911539
-1.3646897	johndroe pointed	-0.15911539
-0.38426536	pointed out	-0.4683224
-2.3145921	the theft	-0.15911539
-0.88999826	theft triggered	-0.15911539
-1.810348	's speculation	-0.15911539
-0.5890616	triggered speculation	-0.15911539
-1.3643287	investigating speculation	-0.15911539
-1.6275246	the computers	-0.19641924
-1.4174731	including computers	-0.15911539
-2.166156	and computers	-0.15911539
-0.64001495	those computers	-0.15911539
-1.3527241	these computers	-0.15911539
-0.58688545	laptop computers	-0.31984228
-1.0650269	may contain	-0.21634586
-1.488249	which contain	-0.15911539
-1.3643287	not contain	-0.15911539
-1.759191	have confidential	-0.15911539
-1.0650269	contain confidential	-0.15911539
-0.5890616	conceal confidential	-0.15911539
-1.1895194	confidential information	-0.15911539
-0.46641576	sensitive information	-0.2229323
-1.1893888	containing information	-0.15911539
-2.0630276	the probe	-0.15911539
-1.9782194	<s> lord	-0.19641924
-1.9032832	to lord	-0.19641924
-1.0650269	commissioner lord	-0.19641924
-1.9680442	<s> stevens	-0.24647361
-1.8477777	by stevens	-0.15911539
-0.6841737	lord stevens	-0.21634586
-0.46592984	sir stevens	-0.15911539
-1.7266643	<s> however	-0.37141237
-1.9884201	a spokeswoman	-0.21634586
-1.6613494	police spokeswoman	-0.15911539
-1.7853283	is no	-0.19641924
-1.5388284	was no	-0.19641924
-1.6251931	were no	-0.15911539
-0.86364734	no sensitive	-0.21634586
-1.00924	any sensitive	-0.21634586
-1.7431755	have any	-0.15911539
-2.1687093	in any	-0.15911539
-1.0606968	or any	-0.15911539
-1.0606968	contain any	-0.15911539
-0.58760965	without any	-0.15911539
-2.68069	the head	-0.21634586
-1.3639678	bureau head	-0.15911539
-2.1947713	<s> northumbria	-0.21634586
-2.061789	of northumbria	-0.21634586
-1.7862575	the northumbria	-0.5475036
-1.78679	's northumbria	-0.15911539
-1.6467034	with northumbria	-0.15911539
-2.2136352	in britain	-0.15911539
-2.4771936	, his	-0.15911539
-1.7628082	. his	-0.24647361
-1.4310912	after his	-0.15911539
-1.788845	is located	-0.24647361
-2.7139301	the vicinity	-0.15911539
-2.4544895	of newcastle	-0.15911539
-2.6155057	the newcastle	-0.15911539
-2.1873937	in newcastle	-0.15911539
-2.2223377	and newcastle	-0.15911539
-2.6871295	the tyne	-0.15911539
-1.8629966	on tyne	-0.15911539
-0.5890616	upon tyne	-0.15911539
-1.8401309	said detectives	-0.21634586
-1.1189331	been investigating	-0.1898527
-1.4189626	two burglaries	-0.19641924
-1.2854215	past ten	-0.21634586
-1.3643662	last ten	-0.15911539
-0.46637526	ten days	-0.24647361
-0.58900094	10 days	-0.15911539
-1.9816694	<s> one	-0.15911539
-0.88661796	other took	-0.15911539
-1.0606968	one took	-0.15911539
-1.2785488	case took	-0.15911539
-0.58760965	first took	-0.15911539
-0.58760965	burglary took	-0.15911539
-0.18864144	took place	-0.23417062
-2.0630276	the weekend	-0.20131582
-1.1904328	january 28-29	-0.15911539
-2.2642996	and cash	-0.19641924
-1.0650269	being taken	-0.15911539
-1.6251931	were taken	-0.21634586
-0.88951325	cash taken	-0.15911539
-1.3658537	; while	-0.15911539
-2.2726393	the last	-0.18678859
-1.8266149	said last	-0.15911539
-0.8880632	place last	-0.24647361
-1.0076567	pyongyang last	-0.24647361
-0.8893922	previous week	-0.15911539
-0.6847471	last week	-0.21137084
-1.6650878	with nothing	-0.15911539
-0.5893043	nothing lost	-0.15911539
-1.6536925	police also	-0.21634586
-1.3600159	bureau also	-0.15911539
-1.0628564	department also	-0.15911539
-0.46592984	presidents also	-0.37141237
-0.86416674	no evidence	-0.18678859
-1.430961	stevens '	-0.21634586
-0.88951325	wales '	-0.21634586
-1.0650269	countries '	-0.15911539
-2.5540385	the work	-0.15911539
-1.78679	's work	-0.15911539
-1.0606968	' work	-0.21634586
-1.0611517	would work	-0.21634586
-0.88661796	will work	-0.15911539
-2.5121977	of wales	-0.19641924
-1.1181037	was not	-0.18678859
-0.46641576	did not	-0.15911539
-0.5890616	do not	-0.15911539
-1.3657779	not directly	-0.15911539
-1.4189626	two laptop	-0.4683224
-0.8893922	laptops containing	-0.15911539
-1.6618872	computers containing	-0.18678859
-2.0390234	the investigation	-0.15911539
-1.5333594	death investigation	-0.15911539
-1.0628564	contain investigation	-0.15911539
-1.1865013	containing investigation	-0.15911539
-1.1867939	confidential materials	-0.15911539
-1.4259702	any materials	-0.15911539
-1.0650492	investigation materials	-0.21634586
-0.8880632	investigative materials	-0.15911539
-2.68069	the chief	-0.15911539
-1.6613494	police chief	-0.21634586
-2.0785098	of larceny	-0.15911539
-1.4826825	this larceny	-0.15911539
-1.1581305	two larceny	-0.24647361
-1.0628564	second larceny	-0.15911539
-1.4826825	this case	-0.15911539
-1.0628564	one case	-0.15911539
-0.862397	larceny case	-0.15911539
-1.0628564	second case	-0.15911539
-1.6262084	has brought	-0.15911539
-1.1893888	rains brought	-0.21634586
-1.3643287	rain brought	-0.15911539
-1.2435719	computers might	-0.15911539
-0.88999826	might conceal	-0.15911539
-2.68069	the bureau	-0.15911539
-1.2421232	police bureau	-0.15911539
-2.6265545	<s> sir	-0.15911539
-2.4933143	of sir	-0.15911539
-2.7139301	the uk	-0.15911539
-1.190357	newcastle area	-0.15911539
-2.7139301	the thames	-0.15911539
-1.06499	tyne river	-0.15911539
-0.58900094	thames river	-0.15911539
-1.6648785	police officers	-0.15911539
-2.6871295	the cases	-0.15911539
-1.8354739	two cases	-0.15911539
-1.2858531	larceny cases	-0.19641924
-1.190357	cases occurred	-0.15911539
-1.2869316	weekend break	-0.15911539
-0.76735467	january 28	-0.24647361
-2.321484	to 29	-0.19641924
-2.3145921	the second	-0.15911539
-1.2857094	no losses	-0.15911539
-1.430424	any losses	-0.15911539
-0.88999826	losses involved	-0.15911539
-1.1891475	also stated	-0.15911539
-1.4302804	today stated	-0.15911539
-1.0657537	evidence showing	-0.15911539
-1.3657779	investigating whether	-0.15911539
-1.6282254	has reported	-0.15911539
-1.0606968	or material	-0.15911539
-0.7649476	confidential material	-0.21634586
-1.4211631	any material	-0.15911539
-1.1836326	containing material	-0.15911539
-0.88661796	investigative material	-0.15911539
-1.814407	's fatal	-0.15911539
-1.2874775	car crash	-0.15911539
-1.3657779	report says	-0.15911539
-1.6282254	has given	-0.15911539
-0.5893043	given rise	-0.15911539
-2.3072407	to conjecture	-0.15911539
-0.58900094	created conjecture	-0.15911539
-1.490123	investigation headed	-0.15911539
-1.6618872	computers did	-0.15911539
-0.8893922	but did	-0.15911539
-0.88999826	chief constable	-0.15911539
-2.4933143	of england	-0.15911539
-2.2052574	in england	-0.15911539
-1.190357	newcastle upon	-0.15911539
-2.7139301	the first	-0.15911539
-0.88999826	29 when	-0.15911539
-1.0657537	second burglary	-0.15911539
-2.4901376	, but	-0.15911539
-0.88999826	but without	-0.15911539
-1.4324656	any loss	-0.15911539
-1.8394078	two break-ins	-0.15911539
-1.3657779	investigating if	-0.15911539
-1.9960276	a straightforward	-0.15911539
-1.190357	containing investigative	-0.15911539
-1.0651575	daily indicated	-0.15911539
-1.3643287	bureau indicated	-0.15911539
-1.3646897	johndroe indicated	-0.15911539
-1.3657779	report indicates	-0.15911539
-1.6282254	has created	-0.15911539
-0.88999826	conjecture among	-0.15911539
-2.6265545	<s> stevenson	-0.15911539
-0.6848304	lord stevenson	-0.15911539
-1.190357	stevenson hidden	-0.15911539
-1.8652523	on them	-0.15911539
-1.9960276	a spokeswomen	-0.15911539
-2.2136352	in fact	-0.15911539
-0.5893043	fact do	-0.15911539
-1.2855655	material concerning	-0.15911539
-1.06499	developments concerning	-0.15911539
-1.6648785	police department	-0.15911539
-1.788845	is situated	-0.15911539
-0.5893043	situated along	-0.15911539
-2.2894247	that officials	-0.15911539
-0.58900094	relief officials	-0.19641924
-1.365988	last 10	-0.15911539
-1.2869316	case happed	-0.15911539
-2.630388	<s> between	-0.15911539
-0.5890616	happed between	-0.15911539
-0.5890616	conversation between	-0.15911539
-1.2869316	weekend vacation	-0.15911539
-2.2642996	and money	-0.15911539
-1.2869316	case happened	-0.15911539
-1.190357	also expressed	-0.15911539
-2.321484	to indicate	-0.15911539
-1.6993073	are connected	-0.15911539
-1.9960276	a direct	-0.15911539
-1.4495968	<s> white	-0.5475036
-1.8062788	the white	-0.7235949
-2.4771936	, white	-0.15911539
-0.38426536	white house	-0.29085755
-1.3657779	house pushes	-0.15911539
-1.9599104	of nuclear	-0.31984228
-2.0816627	the nuclear	-0.15911539
-1.7131459	's nuclear	-0.19641924
-1.2190783	for nuclear	-0.24647361
-1.5602754	korea nuclear	-0.19641924
-0.63550246	its nuclear	-0.2229323
-1.2543343	korean nuclear	-0.19641924
-0.5825656	twelve nuclear	-0.15911539
-1.1640667	yongbyon nuclear	-0.15911539
-0.5825656	sending nuclear	-0.15911539
-0.46206176	12 nuclear	-0.21634586
-0.5825656	dozen nuclear	-0.15911539
-1.1610867	nuclear inspectors	-0.6724424
-0.38411573	iaea inspectors	-0.21634586
-1.2855655	be sent	-0.21634586
-0.8893922	hastily sent	-0.15911539
-1.488249	as soon	-0.21634586
-1.6248344	korea soon	-0.15911539
-0.5890616	very soon	-0.15911539
-1.490123	as possible	-0.21634586
-1.9077295	to monitor	-0.21634586
-1.8150045	of north	-0.19641924
-1.7765827	the north	-0.24647361
-1.8652396	to north	-0.37141237
-0.8851775	monitor north	-0.21634586
-0.8851775	supervise north	-0.21634586
-1.058548	oversee north	-0.24647361
-1.3643287	- korea	-0.15911539
-0.27579215	north korea	-0.3354859
-0.68489015	south korea	-0.20428051
-1.814407	's closure	-0.21634586
-2.0959	of its	-0.24647361
-0.88951325	ensure its	-0.15911539
-0.88951325	down its	-0.15911539
-0.6278905	nuclear reactors	-0.26936278
-1.4102175	said today	-0.24647361
-2.240383	that today	-0.15911539
-1.0606968	officials today	-0.15911539
-1.3557454	house today	-0.19641924
-0.88661796	leaders today	-0.19641924
-1.3639678	house called	-0.15911539
-1.4302804	today called	-0.21634586
-1.490123	this call	-0.15911539
-2.510057	<s> after	-0.15911539
-1.4064093	said after	-0.15911539
-1.275613	week after	-0.15911539
-0.58688545	call after	-0.15911539
-0.46495956	appeal after	-0.21634586
-0.58688545	urge after	-0.15911539
-1.7862575	the us	-0.26754847
-2.04359	, us	-0.15911539
-1.7779346	in us	-0.21634586
-1.1836326	between us	-0.15911539
-1.0060489	after us	-0.21634586
-1.1182022	us president	-0.24647361
-1.2857227	korean president	-0.37141237
-0.88951325	u.s. president	-0.15911539
-0.6425426	president bush	-0.18678859
-2.6871295	the telephone	-0.15911539
-1.9899291	a telephone	-0.21634586
-1.3643287	had telephone	-0.15911539
-1.0657537	telephone conversations	-0.15911539
-1.8458221	and south	-0.19641924
-1.3643287	- south	-0.23417062
-0.985151	with south	-0.19641924
-1.0678638	north korean	-0.2229323
-0.6848304	south korean	-0.28857788
-1.0658298	president roh	-0.37141237
-0.5893043	roh moo	-0.2229323
-1.3639678	- hyun	-0.24647361
-0.8893922	moo hyun	-0.15911539
-1.3657779	house national	-0.37141237
-0.5893043	national security	-0.37141237
-0.5893043	security council	-0.18678859
-2.474022	, spokesman	-0.15911539
-1.0648457	council spokesman	-0.15911539
-1.4495968	<s> johndroe	-0.19641924
-1.0650269	spokesman johndroe	-0.15911539
-0.5890616	spokesperson johndroe	-0.15911539
-1.8394078	two leaders	-0.2229323
-1.7605144	. "	-0.37141237
-1.3600159	had "	-0.15911539
-1.42568	today "	-0.21634586
-0.8880632	leaders "	-0.15911539
-0.50913423	" discussed	-0.15911539
-1.190357	discussed new	-0.15911539
-0.5890616	new developments	-0.15911539
-0.5890616	recent developments	-0.15911539
-0.88951325	latest developments	-0.15911539
-1.7984093	's cooperation	-0.15911539
-2.1873937	in cooperation	-0.15911539
-1.6171687	korea cooperation	-0.15911539
-1.282121	korean cooperation	-0.15911539
-1.4196197	nuclear issue	-0.2229323
-2.2642996	and looked	-0.15911539
-0.5893043	looked forward	-0.15911539
-2.7139301	the speedy	-0.15911539
-0.5890616	speedy return	-0.15911539
-0.88951325	will return	-0.21634586
-0.5890616	quick return	-0.15911539
-2.4970212	of iaea	-0.21634586
-2.2916873	that iaea	-0.15911539
-0.5890616	hope iaea	-0.15911539
-2.2436461	the shutdown	-0.24647361
-1.78679	's shutdown	-0.21634586
-2.193339	and shutdown	-0.15911539
-1.4207165	reactor shutdown	-0.15911539
-1.0606968	oversee shutdown	-0.15911539
-2.2642996	and sealing	-0.24647361
-1.8344976	two presidents	-0.24647361
-1.06499	both presidents	-0.15911539
-1.190357	also welcomed	-0.37141237
-1.2045743	korea free	-0.24647361
-1.2854215	korean free	-0.15911539
-0.4665781	free trade	-0.37141237
-2.6871295	the agreement	-0.15911539
-1.0671687	this agreement	-0.15911539
-0.5890616	trade agreement	-0.2229323
-1.5383025	was signed	-0.15911539
-1.2855655	agreement signed	-0.19641924
-0.6425426	signed +	-0.24647361
-0.5893043	+ yesterday	-0.19641924
-2.2534122	and would	-0.21634586
-1.1893888	reactors would	-0.15911539
-1.1893888	yongbyon would	-0.15911539
-2.321484	to ensure	-0.15911539
-2.3145921	the congresses	-0.24647361
-2.4970212	of both	-0.15911539
-2.2916873	that both	-0.15911539
-1.8591369	by both	-0.15911539
-1.8344976	two countries	-0.21634586
-0.64222556	both countries	-0.15911539
-1.0657537	countries approve	-0.15911539
-1.7266643	<s> experts	-0.2229323
-0.88999826	experts believe	-0.19641924
-2.7139301	the elemental	-0.15911539
-2.6871295	the plutonium	-0.15911539
-0.5890616	elemental plutonium	-0.15911539
-1.0651575	enough plutonium	-0.15911539
-2.2471976	to pyongyang	-0.21634586
-2.240383	that pyongyang	-0.15911539
-1.8367081	by pyongyang	-0.15911539
-0.88661796	believe pyongyang	-0.15911539
-0.58760965	visiting pyongyang	-0.15911539
-1.6262084	has produced	-0.15911539
-1.1895194	plutonium produced	-0.15911539
-1.430961	pyongyang produced	-0.15911539
-1.788845	is sufficient	-0.15911539
-2.321484	to create	-0.15911539
-0.5893043	create twelve	-0.15911539
-1.1617956	nuclear weapons	-0.37141237
-2.2285404	<s> hill	-0.21634586
-0.8893922	talks hill	-0.21634586
-1.1182022	us envoy	-0.21634586
-0.5890616	special envoy	-0.15911539
-0.88951325	u.s. envoy	-0.15911539
-2.68069	the six	-0.24647361
-2.3072407	to six	-0.15911539
-1.3657779	- party	-0.37141237
-0.5893043	party talks	-0.21634586
-1.9884201	a visit	-0.15911539
-1.06499	his visit	-0.15911539
-1.835859	said he	-0.15911539
-1.8806568	that he	-0.24647361
-0.88999826	he expected	-0.24647361
-2.68069	the yongbyon	-0.15911539
-1.792428	in yongbyon	-0.15911539
-0.8641381	be shut	-0.37141237
-0.58900094	shut down	-0.37141237
-0.58900094	shutting down	-0.15911539
-2.7139301	the middle	-0.21634586
-2.4933143	of July	-0.21634586
-1.3639678	- July	-0.21634586
-2.2300694	<s> torrential	-0.15911539
-2.2534122	and torrential	-0.19641924
-0.5890616	disastrous torrential	-0.15911539
-0.8637439	torrential rains	-0.15911539
-0.64222556	heavy rains	-0.19641924
-1.5383025	was hit	-0.15911539
-1.1891475	rains hit	-0.15911539
-1.9483821	<s> western	-0.24647361
-1.7705606	in western	-0.21634586
-0.8851775	hit western	-0.15911539
-0.8851775	major western	-0.24647361
-0.58688545	plague western	-0.15911539
-0.58688545	lashed western	-0.15911539
-2.2774873	to india	-0.15911539
-2.1873937	in india	-0.21634586
-1.4831954	cause india	-0.15911539
-0.26753592	western india	-0.20448452
-2.5465841	<s> 43	-0.15911539
-2.061789	of 43	-0.2229323
-2.406802	, 43	-0.15911539
-0.58760965	leaving 43	-0.15911539
-0.58760965	kills 43	-0.15911539
-1.662232	people dead	-0.15911539
-1.3650018	43 dead	-0.15911539
-1.5409411	was battered	-0.15911539
-2.6871295	the strong	-0.15911539
-2.4771936	, strong	-0.21634586
-1.8591369	by strong	-0.15911539
-0.38411573	strong winds	-0.37141237
-0.38411573	fierce winds	-0.24647361
-0.50913423	some areas	-0.15911539
-1.190357	areas saw	-0.15911539
-0.58900094	saw serious	-0.15911539
-1.0648457	causing serious	-0.15911539
-1.4884791	cause flooding	-0.15911539
-0.46641576	serious flooding	-0.15911539
-1.0650269	causing flooding	-0.15911539
-0.76735467	all domestic	-0.37141237
-2.2642996	and overseas	-0.15911539
-1.4308219	international flights	-0.19641924
-0.58900094	overseas flights	-0.15911539
-2.4933143	of mumbai	-0.15911539
-1.7860539	from mumbai	-0.15911539
-2.0630276	the major	-0.2229323
-1.3656384	western city	-0.24647361
-0.8893922	major city	-0.15911539
-2.7139301	the west	-0.15911539
-1.758512	have stopped	-0.15911539
-1.6245862	were stopped	-0.15911539
-1.9816694	<s> relief	-0.24647361
-2.68069	the deaths	-0.15911539
-1.3650018	43 deaths	-0.15911539
-1.3672487	from June	-0.21634586
-1.1893888	between June	-0.15911539
-0.88951325	every June	-0.15911539
-2.3072407	to September	-0.15911539
-2.2507367	and September	-0.15911539
-2.6265545	<s> every	-0.15911539
-0.76692355	September every	-0.21634586
-0.8893922	every year	-0.21634586
-0.58900094	each year	-0.15911539
-2.6265545	<s> heavy	-0.15911539
-1.8447734	and heavy	-0.21634586
-2.7139301	the monsoon	-0.15911539
-0.88951325	year often	-0.15911539
-0.5890616	monsoon often	-0.15911539
-1.0650269	monsoons often	-0.15911539
-1.4902571	cause widespread	-0.15911539
-2.3072407	to flood	-0.15911539
-0.58900094	widespread flood	-0.15911539
-0.88999826	flood disasters	-0.15911539
-2.474022	, even	-0.15911539
-1.8447734	and even	-0.15911539
-1.2858531	human casualties	-0.15911539
-2.206918	in casualties	-0.15911539
-1.1893888	even casualties	-0.15911539
-2.5121977	of 1.1	-0.37141237
-0.5893043	1.1 billion	-0.21634586
-1.3657779	house urges	-0.15911539
-1.2855655	be hastily	-0.15911539
-1.0648457	urges hastily	-0.15911539
-0.88999826	hastily sending	-0.15911539
-1.6520504	to supervise	-0.19641924
-0.90460134	nuclear reactor	-0.1811111
-0.38411573	atomic reactor	-0.15911539
-2.68069	the appeal	-0.15911539
-1.4877825	this appeal	-0.15911539
-1.0657537	telephone conversation	-0.21634586
-1.0657537	council spokesperson	-0.15911539
-1.190357	discussed recent	-0.15911539
-1.3658537	they hope	-0.15911539
-2.2507367	and will	-0.15911539
-1.06499	inspectors will	-0.21634586
-1.6274235	korea very	-0.15911539
-1.9884201	a halt	-0.15911539
-1.4302804	reactor halt	-0.15911539
-1.2870075	work towards	-0.15911539
-2.3072407	to ensuring	-0.15911539
-0.58900094	towards ensuring	-0.15911539
-2.6871295	the approval	-0.15911539
-1.0651575	its approval	-0.15911539
-0.88951325	ensuring approval	-0.15911539
-1.0657537	' legislatures	-0.15911539
-1.7853283	is enough	-0.15911539
-1.5388284	was enough	-0.15911539
-1.1893888	produced enough	-0.15911539
-2.321484	to manufacture	-0.15911539
-0.58900094	manufacture 12	-0.15911539
-0.58900094	make 12	-0.15911539
-1.5410925	us special	-0.15911539
-0.88999826	he anticipated	-0.15911539
-1.6628523	people killed	-0.15911539
-1.5389581	been killed	-0.15911539
-1.6251931	were killed	-0.15911539
-2.2136352	in disastrous	-0.15911539
-0.60572875	torrential rain	-0.15911539
-1.06499	heavy rain	-0.15911539
-1.5409411	was attacked	-0.15911539
-2.2507367	and storms	-0.15911539
-1.8581791	by storms	-0.15911539
-1.627633	were seriously	-0.15911539
-0.58900094	seriously flooded	-0.15911539
-0.58900094	badly flooded	-0.15911539
-1.190357	mumbai came	-0.15911539
-1.9960276	a rescue	-0.15911539
-0.5893043	rescue official	-0.15911539
-0.88999826	deaths resulted	-0.15911539
-2.68069	the monsoons	-0.15911539
-1.8581791	by monsoons	-0.15911539
-0.88999826	flood disastrously	-0.15911539
-2.071449	, causing	-0.15911539
-1.1891475	even causing	-0.15911539
-1.0657537	causing injuries	-0.15911539
-1.2771863	early dispatch	-0.21634586
-0.46637526	prompt dispatch	-0.21634586
-1.9077295	to oversee	-0.20939663
-2.7139301	the urge	-0.15911539
-1.0657537	bush talked	-0.15911539
-2.68069	the latest	-0.15911539
-1.1891475	discussed latest	-0.15911539
-2.2642996	and expect	-0.15911539
-2.7139301	the quick	-0.15911539
-1.9960276	a day	-0.15911539
-0.5893043	day ago	-0.15911539
-2.321484	to produce	-0.15911539
-1.9960276	a dozen	-0.15911539
-1.0100703	after visiting	-0.21634586
-2.2136352	in mid	-0.21634586
-1.190357	rains plague	-0.15911539
-1.4905919	india leaving	-0.15911539
-2.630388	<s> fierce	-0.15911539
-1.8591369	by fierce	-0.15911539
-1.1895194	about fierce	-0.15911539
-1.190357	areas badly	-0.15911539
-1.1904328	September each	-0.15911539
-1.9884201	a prompt	-0.15911539
-1.0648457	urges prompt	-0.15911539
-2.6871295	the atomic	-0.15911539
-1.2857227	korean atomic	-0.15911539
-1.1893888	yongbyon atomic	-0.15911539
-1.4323899	today urged	-0.15911539
-1.6274235	korea shutting	-0.15911539
-2.6265545	<s> u.s.	-0.15911539
-1.1891475	between u.s.	-0.15911539
-0.88999826	latest development	-0.15911539
-2.2642996	and hoped	-0.15911539
-1.6993073	are committed	-0.15911539
-0.88999826	experts believed	-0.15911539
-1.8394078	two decades	-0.15911539
-2.321484	to make	-0.15911539
-1.3657779	rain disaster	-0.15911539
-0.5893043	disaster kills	-0.15911539
-1.3657779	rain lashed	-0.15911539
-1.627633	were halted	-0.15911539
-1.0657537	monsoons bring	-0.15911539
-1.190357	even resulting	-0.15911539

\3-grams:
-0.31075993	early dementia </s>
-0.46831274	, afp </s>
-0.46831274	afp -RRB- </s>
-0.08103109	-RRB- . </s>
-0.08103109	have . </s>
-0.08103109	alzheimer . </s>
-0.08103109	's . </s>
-0.08103109	people . </s>
-0.06509517	30s . </s>
-0.0701694	dna . </s>
-0.06509517	genes . </s>
-0.08103109	gene . </s>
-0.06509517	fragments . </s>
-0.06509517	malfunctioning . </s>
-0.08103109	disease . </s>
-0.08103109	states . </s>
-0.047884084	chromosomes . </s>
-0.0701694	22 . </s>
-0.08103109	america . </s>
-0.08103109	being . </s>
-0.08103109	segments . </s>
-0.08103109	country . </s>
-0.0701694	22nd . </s>
-0.08103109	syndrome . </s>
-0.08103109	dnas . </s>
-0.08103109	population . </s>
-0.08103109	death . </s>
-0.08103109	6th . </s>
-0.047884084	accident . </s>
-0.08103109	police . </s>
-0.0701694	commissioner . </s>
-0.0701694	computers . </s>
-0.08103109	probe . </s>
-0.06509517	stevens . </s>
-0.08103109	newcastle . </s>
-0.0701694	tyne . </s>
-0.047884084	days . </s>
-0.08103109	lost . </s>
-0.06509517	work . </s>
-0.08103109	investigation . </s>
-0.0701694	chief . </s>
-0.08103109	river . </s>
-0.08103109	losses . </s>
-0.08103109	involved . </s>
-0.08103109	loss . </s>
-0.08103109	them . </s>
-0.047884084	hyun . </s>
-0.08103109	agreement . </s>
-0.0701694	countries . </s>
-0.047884084	weapons . </s>
-0.047884084	July . </s>
-0.0701694	stopped . </s>
-0.08103109	casualties . </s>
-0.0701694	billion . </s>
-0.08103109	halt . </s>
-0.08103109	legislatures . </s>
-0.0701694	killed . </s>
-0.08103109	resulted . </s>
-0.08103109	halted . </s>
-0.31075993	early disorders </s>
-0.31075993	low iq </s>
-0.9027418	arzhermes syndrome </s>
-0.24567366	diana stolen </s>
-0.24567366	death stolen </s>
-0.5196973	were stolen </s>
-0.24567366	investigation stolen </s>
-0.7388927	, london </s>
-0.8675978	nuclear reactors </s>
-0.21886988	. " </s>
-0.72866046	reactor shutdown </s>
-0.91752464	western india </s>
-0.26218113	people dead </s>
-0.26218113	43 dead </s>
-0.88089	atomic reactor </s>
-0.5050883	team of scientists
-0.4007495	consortium of scientists
-0.36670735	<s> international scientists
-0.30083704	of international scientists
-0.55838853	the international scientists
-0.4998724	of gene scientists
-0.43601596	the gene scientists
-1.100662	<s> scientists complete
-0.31393662	scientists complete sequencing
-1.3798223	, the sequencing
-0.97702056	completed the sequencing
-0.25321814	complete sequencing of
-0.21272548	the sequencing of
-0.2994865	international team of
-0.29972172	the sequence of
-0.5414577	14 comprises of
-0.5414577	it comprises of
-0.082322985	million pairs of
-0.0762902	23 pairs of
-0.09528192	three pairs of
-0.082322985	14th pairs of
-0.09528192	8700 pairs of
-0.09528192	3 pairs of
-0.47334582	liangcong genes of
-0.22726703	the goal of
-0.27296895	the cause of
-0.367133	's cause of
-0.367133	on cause of
-0.24926594	two clusters of
-0.2994865	the function of
-0.2994865	great number of
-0.2994865	several forms of
-0.22726703	5 % of
-0.20655948	a total of
-1.2627556	of chromosomes of
-0.2994865	to symptoms of
-0.24926594	international consortium of
-0.20183702	the pair of
-0.20183702	fourteenth pair of
-0.1712199	14th pair of
-0.20183702	4th pair of
-0.25321814	broad range of
-0.25321814	wide range of
-0.22726703	early onset of
-0.63920027	made up of
-0.2994865	a form of
-0.25321814	60 kinds of
-0.21272548	several kinds of
-0.2994865	five percent of
-0.2994865	23 sets of
-0.24926594	a group of
-0.2994865	the aim of
-0.2994865	two groups of
-0.31413934	the order of
-0.3557427	the result of
-0.3557427	direct result of
-0.2994865	a kind of
-0.19400363	a population of
-0.57867205	of death of
-0.31054446	the death of
-0.44017977	and death of
-0.32643154	the princess of
-0.4010284	, princess of
-0.19400363	the office of
-0.41692802	former commissioner of
-0.43412066	confidential information of
-0.21272548	the head of
-0.25321814	bureau head of
-0.2994865	the vicinity of
-0.7486475	<s> one of
-0.8368654	the weekend of
-0.44568747	the work of
-0.44477278	this case of
-0.43412066	two cases of
-0.2994865	chief constable of
-0.41692802	that officials of
-0.2994865	weekend vacation of
-0.24926594	's closure of
-0.31881258	speedy return of
-0.31881258	quick return of
-0.32279354	's shutdown of
-0.3961075	oversee shutdown of
-0.22726703	and sealing of
-0.22726703	the congresses of
-0.24926594	the middle of
-0.28429797	western city of
-0.38445902	the deaths of
-0.8403924	atomic reactor of
-0.31881258	the approval of
-0.31881258	ensuring approval of
-0.21272548	early dispatch of
-0.21272548	prompt dispatch of
-0.6472962	sequencing of the
-0.7164435	sequence of the
-0.36675802	genes of the
-0.6472962	goal of the
-0.7488637	cause of the
-0.6472962	% of the
-0.55846727	order of the
-0.51712114	office of the
-0.36675802	commissioner of the
-0.36675802	information of the
-0.6472962	head of the
-0.36675802	one of the
-0.36675802	officials of the
-0.4265969	sealing of the
-0.4265969	congresses of the
-0.55846727	approval of the
-0.8106977	linked to the
-0.52493435	related to the
-0.45955056	forward to the
-0.4441434	envoy to the
-0.43347442	said , the
-0.93401015	diseases , the
-0.870665	years , the
-0.6671667	london , the
-0.43347442	stevens , the
-0.6671667	hill , the
-0.43347442	mumbai , the
-0.43347442	September , the
-0.78401303	, said the
-0.43677747	police said the
-0.8939884	johndroe said the
-0.6543617	said that the
-0.34555057	illustrates that the
-0.52592325	shows that the
-0.68639266	out that the
-0.4042885	speculation that the
-0.28480712	evidence that the
-0.34555057	showing that the
-0.34555057	conjecture that the
-0.60769373	indicated that the
-0.34555057	ensure that the
-0.28480712	believe that the
-0.34555057	believed that the
-0.3090152	scientists completed the
-0.3090152	have completed the
-0.3090152	had completed the
-0.4910246	this is the
-0.3118742	stevens is the
-0.4276879	stevenson is the
-0.5438633	, including the
-0.35421944	diseases including the
-0.35421944	sequenced including the
-0.27478498	<s> in the
-0.26299682	alzheimer in the
-0.22051597	published in the
-0.22051597	patients in the
-0.26299682	state in the
-0.26299682	probe in the
-0.31794772	located in the
-0.22051597	burglaries in the
-0.26299682	bureau in the
-0.26299682	cases in the
-0.26299682	cooperation in the
-0.26299682	pyongyang in the
-0.26299682	produced in the
-0.39182758	down in the
-0.22051597	flights in the
-0.26299682	city in the
-0.47973204	beings . the
-0.38311318	taken . the
-0.66210717	reactors . the
-0.47973204	reactor . the
-0.48930717	damages and the
-0.72225654	well as the
-0.5903376	can prevent the
-0.15858999	stolen from the
-0.29996634	directly from the
-0.29996634	materials from the
-0.29996634	officers from the
-0.24964055	material from the
-0.29996634	spokeswomen from the
-0.35947576	caused by the
-0.6540115	brought by the
-0.35947576	cooperation by the
-0.547196	agreement by the
-0.35947576	approval by the
-0.7419851	they are the
-0.16282028	afp on the
-0.12824015	study on the
-0.16282028	published on the
-0.13909109	data on the
-0.16282028	london on the
-0.13909109	place on the
-0.16282028	materials on the
-0.16282028	area on the
-0.2724802	material on the
-0.16282028	between on the
-0.13909109	korea on the
-0.16282028	cooperation on the
-0.35335422	materials about the
-0.34886083	vital for the
-0.2873277	spokeswoman for the
-0.34886083	spokesman for the
-0.34886083	flights for the
-0.2548718	scientists decrypted the
-0.2548718	have decrypted the
-0.11430714	<s> over the
-0.11430714	larceny over the
-0.11430714	plutonium over the
-0.11430714	produced over the
-0.11430714	rains over the
-0.11430714	india over the
-0.11430714	rain over the
-0.11430714	storms over the
-0.11430714	talked over the
-0.58367866	house made the
-0.4196498	occurred during the
-0.60904664	taken ; the
-0.39860332	shutdown ; the
-0.67479986	of all the
-0.38698417	had set the
-0.3015618	so far the
-0.68593645	detectives with the
-0.4443345	28-29 with the
-0.38698417	to find the
-0.32081842	that caused the
-0.32081842	had caused the
-0.3015618	; while the
-0.9281653	was not the
-0.3015618	investigating whether the
-0.3015618	report says the
-0.3015618	29 when the
-0.3015618	investigating if the
-0.2548718	material concerning the
-0.2548718	developments concerning the
-0.3015618	situated along the
-0.3015618	case happened the
-0.5423277	to monitor the
-0.460263	that today the
-0.86784995	" discussed the
-0.15929593	also welcomed the
-0.22870319	he expected the
-0.7050982	to supervise the
-0.38698417	to ensuring the
-0.3015618	he anticipated the
-0.8961009	to oversee the
-0.3015618	and expect the
-0.6927568	sequence of chromosome
-1.4523594	pairs of chromosome
-1.7159537	of the chromosome
-0.49686748	genoscope said chromosome
-1.1322153	said that chromosome
-0.7850505	shows that chromosome
-0.5282094	of human chromosome
-0.49542046	being 's chromosome
-0.23595594	the fourth chromosome
-1.1544757	of a chromosome
-0.7691231	sequence for chromosome
-0.46322334	the chromosome linked
-0.46322334	for chromosome linked
-0.47152698	that is linked
-0.5377227	which is linked
-0.9067476	of gene linked
-0.49229825	that are linked
-0.40081427	any data linked
-0.4545619	burglaries were linked
-0.4545619	break-ins were linked
-0.46370035	any material linked
-0.55119216	fourth chromosome to
-0.070469856	chromosome linked to
-0.06537223	is linked to
-0.08138256	gene linked to
-0.08138256	are linked to
-0.08138256	data linked to
-0.070469856	were linked to
-0.08138256	material linked to
-0.4952076	is , to
-0.7789578	billion , to
-0.7024435	been completed to
-0.5261758	scientists is to
-0.46071416	geneticists is to
-0.16067742	diagnostic tools to
-0.46922272	so as to
-0.8169182	20 years to
-0.30469358	chromosome crucial to
-0.59644765	and ultimately to
-0.39079964	that lead to
-0.39079964	early researches to
-0.25736403	are critical to
-0.25736403	chromosomes critical to
-0.21603276	are related to
-0.25736403	materials related to
-0.30469358	possibly contracted to
-0.8461589	no evidence to
-0.36394346	would work to
-0.2308663	january 28 to
-0.30469358	given rise to
-0.30469358	are connected to
-0.07633269	nuclear inspectors to
-0.46454313	iaea inspectors to
-0.39079964	hastily sent to
-0.32384464	korea soon to
-0.32384464	very soon to
-0.2533263	as possible to
-1.1750329	north korea to
-0.30469358	looked forward to
-0.3437777	will return to
-0.30469358	is sufficient to
-0.18674742	us envoy to
-0.2209231	special envoy to
-0.2209231	u.s. envoy to
-0.25736403	a visit to
-0.25736403	his visit to
-0.6805458	in yongbyon to
-0.42376477	overseas flights to
-0.26816708	from June to
-0.32384464	every June to
-0.8587599	atomic reactor to
-0.32384464	is enough to
-0.32384464	was enough to
-0.93138343	torrential rain to
-0.30469358	mumbai came to
-0.30469358	are committed to
-0.50786084	symptoms of early
-1.7688859	in the early
-0.5058571	as the early
-1.4270732	linked to early
-0.7854445	critical to early
-0.3694259	including an early
-0.3694259	for an early
-0.49428725	americans have early
-1.0575573	, including early
-1.0882963	<s> in early
-0.50496304	; and early
-0.77912104	suffer from early
-0.78507704	house urges early
-0.7767396	to early dementia
-0.31395894	deoxyribonucleic acid -LRB-
-0.8040334	the 6th -LRB-
-0.36942112	<s> -LRB- afp
-0.37130344	6th -LRB- afp
-0.80774033	6th , afp
-0.7439857	human chromosome ,
-0.6014936	<s> afp ,
-0.541911	-LRB- afp ,
-0.2641459	, paris ,
-0.35380164	from paris ,
-0.4794185	france said ,
-0.68725836	been completed ,
-1.1933454	chromosome 14 ,
-0.8917552	scientists is ,
-0.74555504	of diseases ,
-0.2896239	many diseases ,
-0.9748705	alzheimer 's ,
-0.5828189	journal nature ,
-0.73353505	of genes ,
-0.63792336	provide treatments ,
-0.35380164	, genoscope ,
-0.53848445	by genoscope ,
-0.6352575	the research ,
-0.44294178	research center ,
-0.76984787	immune system ,
-0.66405976	alzheimer disease ,
-0.38226146	previous studies ,
-0.69612664	spastic paraplegia ,
-0.6352575	young children ,
-0.4770989	missing teeth ,
-0.6352575	united states ,
-0.2641459	three years ,
-0.35380164	3 years ,
-0.3548455	chromosomes 20 ,
-0.3548455	pair 20 ,
-0.5828189	, 21 ,
-0.29767868	agence france-presse ,
-0.78090245	fully sequenced ,
-0.41456038	and science ,
-0.38226146	cause illness ,
-0.24785365	the 20th ,
-0.8537138	arzhermes syndrome ,
-0.29767868	weekly magazine ,
-0.29767868	enfant period ,
-0.29767868	their orders ,
-0.7054775	of diana ,
-0.4770989	the 6th ,
-0.8051966	<s> london ,
-0.6224175	, london ,
-0.6352575	in 1997 ,
-1.0787448	laptop computers ,
-0.8814305	sensitive information ,
-0.45618355	by stevens ,
-0.15757522	<s> however ,
-0.83123654	the weekend ,
-0.37743422	previous week ,
-0.5445134	last week ,
-0.69612664	of wales ,
-0.44294178	to 29 ,
-0.29767868	report indicates ,
-0.7435813	police department ,
-0.8236667	security council ,
-0.6352575	council spokesman ,
-0.7607293	<s> johndroe ,
-0.37882394	nuclear issue ,
-0.44294178	+ yesterday ,
-0.3125	<s> hill ,
-0.5364161	party talks ,
-0.28765184	to india ,
-0.23999777	in india ,
-0.28765184	cause india ,
-0.64491624	western india ,
-0.6661949	serious flooding ,
-0.43165767	from mumbai ,
-0.29767868	the west ,
-0.7836989	to September ,
-0.3125	every year ,
-0.5364161	1.1 billion ,
-0.38226146	seriously flooded ,
-0.29767868	flood disastrously ,
-0.29767868	day ago ,
-0.57327116	afp , paris
-0.5046978	france-presse , paris
-0.5068749	crash in paris
-0.49714676	report from paris
-0.35171187	the 1997 paris
-0.4009671	weekend of january
-0.505404	vacation of january
-0.70258456	paris , january
-0.49745658	break from january
-0.36497563	, january 2
-0.9774375	-LRB- afp -RRB-
-0.26011014	january 2 -RRB-
-0.4353608	-LRB- dna -RRB-
-0.31342414	, 2nd -RRB-
-0.31342414	, thursday -RRB-
-0.73608255	2 -RRB- an
-1.0653247	, including an
-0.93442625	called for an
-0.4723464	-RRB- - an
-0.40375262	group of international
-1.5017931	<s> the international
-0.370776	-RRB- an international
-0.370776	- an international
-0.48327935	domestic and international
-0.74720186	an international team
-0.5118622	of scientists said
-0.61934286	international scientists said
-0.46300092	nature , said
-0.71903485	genoscope , said
-0.71903485	center , said
-0.46300092	council , said
-0.46300092	spokesman , said
-0.37130582	talks , said
-0.45052063	center genoscope said
-0.89357173	the report said
-0.31129146	in france said
-1.4086694	metropolitan police said
-0.39885786	police spokeswoman said
-0.36225158	police also said
-1.0254754	police bureau said
-0.49609834	relief officials said
-0.57725966	<s> johndroe said
-0.34421098	spokesman johndroe said
-0.34421098	spokesperson johndroe said
-0.32482818	talks hill said
-0.31129146	rescue official said
-0.5008996	syndrome , that
-0.18305191	scientists said that
-0.5184531	, said that
-0.35729045	spokeswoman said that
-0.35729045	bureau said that
-0.35734838	johndroe said that
-1.241257	chromosome 14 that
-0.9819187	of alzheimer that
-1.0132886	alzheimer 's that
-0.48135936	among people that
-0.30548003	nature illustrates that
-0.6317332	of genes that
-0.33482403	defective genes that
-0.33482403	flawed genes that
-1.4418967	, and that
-0.49457443	provide treatments that
-0.3246045	at treatments that
-0.4529704	spastic paraplegia that
-0.42479962	report states that
-0.25798935	, shows that
-0.25798935	weekly shows that
-0.30548003	express noted that
-1.0207658	car accident that
-0.12368862	pointed out that
-0.22143576	's speculation that
-0.22143576	triggered speculation that
-0.22143576	investigating speculation that
-1.1239367	been investigating that
-0.81808543	last week that
-0.5831068	no evidence that
-0.25798935	also stated that
-0.25798935	today stated that
-0.30548003	evidence showing that
-0.30548003	has reported that
-0.39175874	to conjecture that
-0.22143576	daily indicated that
-0.22143576	bureau indicated that
-0.22143576	johndroe indicated that
-0.30548003	also expressed that
-0.30548003	to indicate that
-0.3354254	said today that
-0.9371705	trade agreement that
-0.5979887	to ensure that
-0.4529704	experts believe that
-0.5513729	the plutonium that
-0.3621822	elemental plutonium that
-0.7257774	visiting pyongyang that
-0.30548003	and hoped that
-0.30548003	experts believed that
-0.7013235	said that they
-0.5001936	and that they
-0.50955105	identified . they
-0.5073609	sequenced and they
-0.7286565	that they have
-0.4321135	30s may have
-0.7274178	200,000 americans have
-0.3110256	<s> humans have
-0.95667636	of chromosomes have
-0.44035345	other chromosomes have
-0.39272302	human beings have
-0.39853266	whose order have
-0.6648384	in 1997 have
-1.0919801	northumbria police have
-0.4685102	do not have
-0.6089319	computers might have
-1.0241005	police bureau have
-0.78192174	police department have
-0.8228549	of mumbai have
-1.0986692	<s> scientists completed
-0.7807417	they have completed
-0.99042594	has been completed
-0.73603463	they had completed
-0.94918495	sequencing of human
-0.4990528	chromosomes of human
-1.165142	pair of human
-0.7729246	sequence for human
-0.83157825	and even human
-0.20903434	<s> chromosome 14
-0.32878453	of chromosome 14
-0.2733969	said chromosome 14
-0.20903434	that chromosome 14
-0.42082426	human chromosome 14
-0.2733969	's chromosome 14
-0.3471491	gene scientists is
-0.50573915	14 that is
-1.2837977	chromosome 14 is
-0.4606005	<s> this is
-0.31182364	of geneticists is
-0.51604515	20 years is
-0.8158816	, which is
-0.4464001	that there is
-0.1998951	his office is
-0.7162417	lord stevens is
-0.6508205	sir stevens is
-0.8254535	lord stevenson is
-1.0684325	linked to many
-0.49171907	researches to many
-0.93356514	related to many
-0.4999361	researches on many
-0.5047729	number of diseases
-0.400532	range of diseases
-0.5076839	lead to diseases
-0.14242667	to many diseases
-0.26429233	on many diseases
-0.75339836	that cause diseases
-0.4720425	. these diseases
-0.49830708	completed , including
-0.56963694	diseases , including
-0.49830708	orders , including
-1.1128964	many diseases including
-1.5591896	, and including
-0.45360553	been sequenced including
-1.1077582	including the early-onset
-0.50776184	impairments and early-onset
-0.7832906	suffer from early-onset
-0.9645984	% of alzheimer
-0.35835028	onset of alzheimer
-0.51011235	all the alzheimer
-0.22642307	the early-onset alzheimer
-0.22642307	and early-onset alzheimer
-0.22642307	from early-onset alzheimer
-0.70107174	of all alzheimer
-0.3265148	the early-stage alzheimer
-0.49123582	people with alzheimer
-0.8922428	of alzheimer 's
-0.32062975	early-onset alzheimer 's
-0.4899448	brought people 's
-0.43352067	include children 's
-0.43352067	human being 's
-0.6512177	of diana 's
-0.64716464	princess diana 's
-0.6534039	<s> london 's
-0.39983496	of england 's
-0.8263233	lord stevenson 's
-0.46404308	north korea 's
-1.2151062	the us 's
-0.5082182	's that may
-0.8128222	their 30s may
-0.8397716	the computers may
-0.43596476	that may strike
-0.84342414	that can strike
-0.50694555	contracted to people
-0.7579745	early-stage alzheimer people
-0.26386932	may strike people
-0.26386932	can strike people
-0.70077014	about 200,000 people
-0.434707	has brought people
-0.31288996	conjecture among people
-0.24689789	<s> 43 people
-0.2604741	of 43 people
-0.24689789	, 43 people
-0.24689789	kills 43 people
-0.44264165	in paris in
-0.9499016	today that in
-0.4731118	with alzheimer in
-0.35185698	to people in
-0.35185698	alzheimer people in
-0.2896051	strike people in
-0.7232034	43 people in
-0.32435107	study published in
-0.32435107	was published in
-0.682988	by genoscope in
-0.49242467	been identified in
-0.25778073	alzheimer patients in
-0.25778073	's patients in
-0.3052177	alzheimer sufferers in
-0.3052177	early state in
-0.44264165	not result in
-1.154263	princess diana in
-1.0635815	northumbria police in
-0.75095767	these computers in
-0.8814721	the probe in
-0.23122786	is located in
-0.45263237	two burglaries in
-0.9949047	police bureau in
-0.81689745	larceny cases in
-0.3052177	car crash in
-1.0927308	nuclear reactors in
-0.32435107	recent developments in
-0.32435107	latest developments in
-0.44195372	korean cooperation in
-0.46637166	by pyongyang in
-0.44195372	pyongyang produced in
-0.19675139	shut down in
-0.682988	serious flooding in
-0.4875921	international flights in
-0.3914388	major city in
-0.32435107	human casualties in
-0.32435107	even casualties in
-1.0214691	nuclear reactor in
-0.4253356	people killed in
-0.93360674	torrential rain in
-0.3052177	latest development in
-0.3052177	even resulting in
-0.33457932	people in their
-0.4923275	identified with their
-0.20094812	in their 30s
-0.4482134	dna -RRB- .
-0.47593677	may have .
-0.7138851	early-stage alzheimer .
-0.9675785	alzheimer 's .
-1.0769179	43 people .
-0.37721762	their 30s .
-0.29613507	to date .
-0.31557268	of dna .
-0.31557268	million dna .
-0.3538669	disease genes .
-0.43862563	diseased genes .
-0.4578507	disease gene .
-0.2249434	gene fragments .
-0.2249434	from malfunctioning .
-0.66047966	alzheimer disease .
-0.8773886	been identified .
-0.6319063	united states .
-0.6503427	of chromosomes .
-0.24664685	and 22 .
-0.29613507	in america .
-0.7659061	human beings .
-0.41254118	into being .
-0.29613507	gene segments .
-0.38038665	the country .
-0.24664685	and 22nd .
-0.8481858	arzhermes syndrome .
-0.29613507	of dnas .
-0.29613507	quite prominent .
-0.38038665	arzhermes population .
-0.861623	and death .
-0.41254118	, 6th .
-0.41119614	car accident .
-1.2862728	metropolitan police .
-0.649254	police commissioner .
-0.98089373	the computers .
-0.67461294	those computers .
-0.8481858	the probe .
-0.6842173	lord stevens .
-0.6193733	sir stevens .
-0.29613507	in britain .
-0.42955762	and newcastle .
-0.31557268	on tyne .
